{"learner":{"attributes":{"scikit_learn":"{\"_estimator_type\": \"classifier\"}"},"feature_names":["Pregnancies","Glucose","BloodPressure","SkinThickness","Insulin","BMI","DiabetesPedigreeFunction","Age"],"feature_types":["int","float","float","float","float","float","float","int"],"gradient_booster":{"model":{"cats":{"enc":[],"feature_segments":[],"sorted_idx":[]},"gbtree_model_param":{"num_parallel_tree":"1","num_trees":"500"},"iteration_indptr":[0,1,2,3,4,5,6,7,8,9,10,11,12,13,14,15,16,17,18,19,20,21,22,23,24,25,26,27,28,29,30,31,32,33,34,35,36,37,38,39,40,41,42,43,44,45,46,47,48,49,50,51,52,53,54,55,56,57,58,59,60,61,62,63,64,65,66,67,68,69,70,71,72,73,74,75,76,77,78,79,80,81,82,83,84,85,86,87,88,89,90,91,92,93,94,95,96,97,98,99,100,101,102,103,104,105,106,107,108,109,110,111,112,113,114,115,116,117,118,119,120,121,122,123,124,125,126,127,128,129,130,131,132,133,134,135,136,137,138,139,140,141,142,143,144,145,146,147,148,149,150,151,152,153,154,155,156,157,158,159,160,161,162,163,164,165,166,167,168,169,170,171,172,173,174,175,176,177,178,179,180,181,182,183,184,185,186,187,188,189,190,191,192,193,194,195,196,197,198,199,200,201,202,203,204,205,206,207,208,209,210,211,212,213,214,215,216,217,218,219,220,221,222,223,224,225,226,227,228,229,230,231,232,233,234,235,236,237,238,239,240,241,242,243,244,245,246,247,248,249,250,251,252,253,254,255,256,257,258,259,260,261,262,263,264,265,266,267,268,269,270,271,272,273,274,275,276,277,278,279,280,281,282,283,284,285,286,287,288,289,290,291,292,293,294,295,296,297,298,299,300,301,302,303,304,305,306,307,308,309,310,311,312,313,314,315,316,317,318,319,320,321,322,323,324,325,326,327,328,329,330,331,332,333,334,335,336,337,338,339,340,341,342,343,344,345,346,347,348,349,350,351,352,353,354,355,356,357,358,359,360,361,362,363,364,365,366,367,368,369,370,371,372,373,374,375,376,377,378,379,380,381,382,383,384,385,386,387,388,389,390,391,392,393,394,395,396,397,398,399,400,401,402,403,404,405,406,407,408,409,410,411,412,413,414,415,416,417,418,419,420,421,422,423,424,425,426,427,428,429,430,431,432,433,434,435,436,437,438,439,440,441,442,443,444,445,446,447,448,449,450,451,452,453,454,455,456,457,458,459,460,461,462,463,464,465,466,467,468,469,470,471,472,473,474,475,476,477,478,479,480,481,482,483,484,485,486,487,488,489,490,491,492,493,494,495,496,497,498,499,500],"tree_info":[0,0,0,0,0,0,0,0,0,0,0,0,0,0,0,0,0,0,0,0,0,0,0,0,0,0,0,0,0,0,0,0,0,0,0,0,0,0,0,0,0,0,0,0,0,0,0,0,0,0,0,0,0,0,0,0,0,0,0,0,0,0,0,0,0,0,0,0,0,0,0,0,0,0,0,0,0,0,0,0,0,0,0,0,0,0,0,0,0,0,0,0,0,0,0,0,0,0,0,0,0,0,0,0,0,0,0,0,0,0,0,0,0,0,0,0,0,0,0,0,0,0,0,0,0,0,0,0,0,0,0,0,0,0,0,0,0,0,0,0,0,0,0,0,0,0,0,0,0,0,0,0,0,0,0,0,0,0,0,0,0,0,0,0,0,0,0,0,0,0,0,0,0,0,0,0,0,0,0,0,0,0,0,0,0,0,0,0,0,0,0,0,0,0,0,0,0,0,0,0,0,0,0,0,0,0,0,0,0,0,0,0,0,0,0,0,0,0,0,0,0,0,0,0,0,0,0,0,0,0,0,0,0,0,0,0,0,0,0,0,0,0,0,0,0,0,0,0,0,0,0,0,0,0,0,0,0,0,0,0,0,0,0,0,0,0,0,0,0,0,0,0,0,0,0,0,0,0,0,0,0,0,0,0,0,0,0,0,0,0,0,0,0,0,0,0,0,0,0,0,0,0,0,0,0,0,0,0,0,0,0,0,0,0,0,0,0,0,0,0,0,0,0,0,0,0,0,0,0,0,0,0,0,0,0,0,0,0,0,0,0,0,0,0,0,0,0,0,0,0,0,0,0,0,0,0,0,0,0,0,0,0,0,0,0,0,0,0,0,0,0,0,0,0,0,0,0,0,0,0,0,0,0,0,0,0,0,0,0,0,0,0,0,0,0,0,0,0,0,0,0,0,0,0,0,0,0,0,0,0,0,0,0,0,0,0,0,0,0,0,0,0,0,0,0,0,0,0,0,0,0,0,0,0,0,0,0,0,0,0,0,0,0,0,0,0,0,0,0,0,0,0,0,0,0,0,0,0,0,0,0,0,0,0,0,0,0,0,0,0,0,0,0,0,0,0,0,0,0,0,0,0,0,0,0,0,0,0,0,0,0,0,0,0,0,0,0,0,0,0],"trees":[{"base_weights":[-3.1117398E-2,-7.6029056E-1,9.798658E-1,-1.5384616E0,-2.835249E-1,-2.6086956E-1,1.3304721E0,-1.6969697E0,-5.714286E-1,-9.6666664E-1,2.8965518E-1,-9.74359E-1,5.882353E-1,9.310345E-1,1.6694214E0,-1.75E0,-0E0,-1.1111112E0,2.857143E-1,-1.5555556E0,-4.5714286E-1,-4.9090907E-2,6.1417323E-1,-1.3103448E0,-0E0,-2E-2,8.965517E-1,1.1764706E-1,1.2093023E0,1.7217392E0,1.2E-2,-5.414634E-2,-6.6666664E-3,-1.2E-2,-4E-2,3.3333335E-2,-2E-2,-5.3846154E-2,-2.2105262E-2,-3.882353E-2,-5.2631577E-3,-1.3548386E-2,2.76E-2,-2E-2,-4.6666667E-2,3E-2,-2.4E-2,3.8181815E-2,-5.4545454E-3,-3.3333335E-2,1.4482758E-2,2.5384614E-2,4.7368422E-2,2E-2,5.423077E-2],"categories":[],"categories_nodes":[],"categories_segments":[],"categories_sizes":[],"default_left":[0,0,0,0,0,0,0,0,0,0,0,0,0,0,0,0,0,0,0,0,0,0,0,0,0,0,0,0,0,0,0,0,0,0,0,0,0,0,0,0,0,0,0,0,0,0,0,0,0,0,0,0,0,0,0],"id":0,"left_children":[1,3,5,7,9,11,13,15,17,19,21,23,25,27,29,31,-1,33,35,37,39,-1,41,43,45,-1,47,49,51,53,-1,-1,-1,-1,-1,-1,-1,-1,-1,-1,-1,-1,-1,-1,-1,-1,-1,-1,-1,-1,-1,-1,-1,-1,-1],"loss_changes":[1.3104187E2,3.7870094E1,3.2755295E1,5.0083237E0,2.5829502E1,1.1023674E1,6.3321304E0,2.969696E0,3.555555E0,8.290478E0,2.3662271E1,3.191865E0,3.8864098E0,6.4215755E0,1.3203049E0,2.281845E0,0E0,1.7777824E-1,3.4920633E0,1.3225365E0,3.899101E0,0E0,1.0764267E1,1.0728073E-1,3.6E0,0E0,3.1724138E0,4.349786E0,1.5500412E0,1.4021149E0,0E0,0E0,0E0,0E0,0E0,0E0,0E0,0E0,0E0,0E0,0E0,0E0,0E0,0E0,0E0,0E0,0E0,0E0,0E0,0E0,0E0,0E0,0E0,0E0,0E0],"parents":[2147483647,0,0,1,1,2,2,3,3,4,4,5,5,6,6,7,7,8,8,9,9,10,10,11,11,12,12,13,13,14,14,15,15,17,17,18,18,19,19,20,20,22,22,23,23,24,24,26,26,27,27,28,28,29,29],"right_children":[2,4,6,8,10,12,14,16,18,20,22,24,26,28,30,32,-1,34,36,38,40,-1,42,44,46,-1,48,50,52,54,-1,-1,-1,-1,-1,-1,-1,-1,-1,-1,-1,-1,-1,-1,-1,-1,-1,-1,-1,-1,-1,-1,-1,-1,-1],"split_conditions":[1.27402565E2,1.00446915E2,3.021416E1,6.74E-1,2.9E1,1.46E2,1.574449E2,4.0188927E1,3E0,2.9101166E1,2.66E1,2.83E1,2.8E1,3.05E-1,1.461E0,4.9E1,-0E0,8.6960787E-1,3.3E1,6.27E-1,3.082432E1,-4.9090907E-2,2.5283954E-1,7.205432E1,1.35E2,-2E-2,2.93E1,1.2971773E2,4E1,2.6344297E1,1.2E-2,-5.414634E-2,-6.6666664E-3,-1.2E-2,-4E-2,3.3333335E-2,-2E-2,-5.3846154E-2,-2.2105262E-2,-3.882353E-2,-5.2631577E-3,-1.3548386E-2,2.76E-2,-2E-2,-4.6666667E-2,3E-2,-2.4E-2,3.8181815E-2,-5.4545454E-3,-3.3333335E-2,1.4482758E-2,2.5384614E-2,4.7368422E-2,2E-2,5.423077E-2],"split_indices":[1,1,5,6,7,1,1,3,0,3,5,5,7,6,6,7,0,6,7,6,5,0,6,2,1,0,5,1,7,3,0,0,0,0,0,0,0,0,0,0,0,0,0,0,0,0,0,0,0,0,0,0,0,0,0],"split_type":[0,0,0,0,0,0,0,0,0,0,0,0,0,0,0,0,0,0,0,0,0,0,0,0,0,0,0,0,0,0,0,0,0,0,0,0,0,0,0,0,0,0,0,0,0,0,0,0,0,0,0,0,0,0,0],"sum_hessian":[1.7575E2,1.0225E2,7.35E1,3.8E1,6.425E1,1.625E1,5.725E1,3.2E1,6E0,2.9E1,3.525E1,8.75E0,7.5E0,2.8E1,2.925E1,3.1E1,1E0,3.5E0,2.5E0,1.25E1,1.65E1,4.5E0,3.075E1,6.25E0,2.5E0,1.25E0,6.25E0,7.5E0,2.05E1,2.775E1,1.5E0,2.975E1,1.25E0,1.5E0,2E0,1.25E0,1.25E0,8.75E0,3.75E0,3.25E0,1.325E1,6.75E0,2.4E1,2.75E0,3.5E0,1E0,1.5E0,4.5E0,1.75E0,1.25E0,6.25E0,1.2E1,8.5E0,2.75E0,2.5E1],"tree_param":{"num_deleted":"0","num_feature":"8","num_nodes":"55","size_leaf_vector":"1"}},{"base_weights":[4.6319593E-2,-4.7219363E-1,1.310884E0,-1.6263479E0,-6.8522744E-2,6.23379E-1,1.6392517E0,-5.197692E-2,-1.0101418E0,-1.1952474E0,2.949998E-1,-2.993253E-2,8.804217E-1,1.687268E0,5.871891E-3,-4.1932493E-2,1.4406252E-4,-1.3564966E0,1.0762893E-2,-3.0393356E-1,7.4431366E-1,-2.9935476E-1,1.1125184E0,1.1334886E-2,5.2105322E-2,-4.6077378E-2,1.4286244E-4,-3.6373205E-2,4.002183E-3,-1.6488314E-2,2.8324267E-2,6.5477304E-3,-2.0518553E-2,3.9565E-2,9.867274E-3],"categories":[],"categories_nodes":[],"categories_segments":[],"categories_sizes":[],"default_left":[0,0,0,0,0,0,0,0,0,0,0,0,0,0,0,0,0,0,0,0,0,0,0,0,0,0,0,0,0,0,0,0,0,0,0],"id":1,"left_children":[1,3,5,7,9,11,13,-1,15,17,19,-1,21,23,-1,-1,-1,25,-1,27,29,31,33,-1,-1,-1,-1,-1,-1,-1,-1,-1,-1,-1,-1],"loss_changes":[1.1777826E2,5.9269924E1,1.0768005E1,4.0863037E-1,3.945724E1,8.58509E0,2.076973E0,0E0,2.8579507E0,6.3721085E0,1.9867325E1,0E0,4.8496323E0,1.5172195E0,0E0,0E0,0E0,5.2554092E0,0E0,1.2873859E1,1.1376362E1,8.4593284E-1,1.8288136E0,0E0,0E0,0E0,0E0,0E0,0E0,0E0,0E0,0E0,0E0,0E0,0E0],"parents":[2147483647,0,0,1,1,2,2,3,3,4,4,5,5,6,6,8,8,9,9,10,10,12,12,13,13,17,17,19,19,20,20,21,21,22,22],"right_children":[2,4,6,8,10,12,14,-1,16,18,20,-1,22,24,-1,-1,-1,26,-1,28,30,32,34,-1,-1,-1,-1,-1,-1,-1,-1,-1,-1,-1,-1],"split_conditions":[1.4371327E2,2.79E1,1.5804584E2,4E1,1E2,2.22E-1,6.1E1,-5.197692E-2,2.7E1,1.5559213E2,2.9E1,-2.993253E-2,6.618401E1,1.05E2,5.871891E-3,-4.1932493E-2,1.4406252E-4,7.820817E-1,1.0762893E-2,2.9101166E1,2.05E-1,5.9704597E1,3.86E1,1.1334886E-2,5.2105322E-2,-4.6077378E-2,1.4286244E-4,-3.6373205E-2,4.002183E-3,-1.6488314E-2,2.8324267E-2,6.5477304E-3,-2.0518553E-2,3.9565E-2,9.867274E-3],"split_indices":[1,5,1,7,1,6,7,0,5,4,7,0,2,4,0,0,0,6,0,3,6,2,5,0,0,0,0,0,0,0,0,0,0,0,0],"split_type":[0,0,0,0,0,0,0,0,0,0,0,0,0,0,0,0,0,0,0,0,0,0,0,0,0,0,0,0,0,0,0,0,0,0,0],"sum_hessian":[1.7767996E2,1.2645559E2,5.1224377E1,3.1982899E1,9.447269E1,1.7494493E1,3.3729885E1,2.5735224E1,6.247675E0,2.2487026E1,7.1985664E1,1.9998819E0,1.5494611E1,3.2480618E1,1.2492666E0,4.248138E0,1.999537E0,2.0488203E1,1.9988226E0,3.0994156E1,4.099151E1,2.4995098E0,1.2995101E1,1.4993738E0,3.0981245E1,1.7988932E1,2.4992723E0,9.495789E0,2.1498367E1,5.249524E0,3.5741985E1,1.2498685E0,1.2496413E0,9.7460575E0,3.2490442E0],"tree_param":{"num_deleted":"0","num_feature":"8","num_nodes":"35","size_leaf_vector":"1"}},{"base_weights":[4.5595504E-2,-6.759723E-1,9.764485E-1,-1.2720864E0,-6.096887E-2,-2.1036859E-1,1.2790277E0,-1.3766017E0,4.1725004E-1,-5.030388E-2,2.465147E-1,-8.0546594E-1,5.005124E-1,8.143183E-1,5.1551405E-2,-5.0594546E-2,-9.601198E-1,6.162784E-4,2.0171566E-2,-4.8867533E-1,8.499457E-1,-1.1726389E0,-7.964833E-3,-2.0126827E-2,8.057092E-1,9.8812467E-1,-2.6193349E-2,-7.8147715E-3,-4.6583813E-2,-4.5860983E-2,-4.7883685E-3,2.8835986E-2,-1.9938624E-2,-8.6679235E-3,-4.503435E-2,-3.300453E-2,2.6659168E-2,3.244443E-2,-7.71097E-3,3.7367463E-2,1.784543E-2,-2.2549527E-2,3.7106253E-2],"categories":[],"categories_nodes":[],"categories_segments":[],"categories_sizes":[],"default_left":[0,0,0,0,0,0,0,0,0,0,0,0,0,0,0,0,0,0,0,0,0,0,0,0,0,0,0,0,0,0,0,0,0,0,0,0,0,0,0,0,0,0,0],"id":2,"left_children":[1,3,5,7,9,11,13,15,17,-1,19,21,23,25,-1,-1,27,-1,-1,29,31,33,35,-1,37,39,41,-1,-1,-1,-1,-1,-1,-1,-1,-1,-1,-1,-1,-1,-1,-1,-1],"loss_changes":[1.2021887E2,3.690037E1,2.8328735E1,9.608711E0,2.5601027E1,7.4818606E0,1.1341942E1,4.629837E0,3.6560017E-1,0E0,1.9696993E1,2.7699409E0,3.4869363E0,4.7339363E0,0E0,0E0,9.123631E0,0E0,0E0,6.6784625E0,4.7225304E0,1.4510164E0,4.8937697E0,0E0,2.327259E0,1.9656792E0,6.88248E0,0E0,0E0,0E0,0E0,0E0,0E0,0E0,0E0,0E0,0E0,0E0,0E0,0E0,0E0,0E0,0E0],"parents":[2147483647,0,0,1,1,2,2,3,3,4,4,5,5,6,6,7,7,8,8,10,10,11,11,12,12,13,13,16,16,19,19,20,20,21,21,22,22,24,24,25,25,26,26],"right_children":[2,4,6,8,10,12,14,16,18,-1,20,22,24,26,-1,-1,28,-1,-1,30,32,34,36,-1,38,40,42,-1,-1,-1,-1,-1,-1,-1,-1,-1,-1,-1,-1,-1,-1,-1,-1],"split_conditions":[1.27402565E2,2.9E1,3E1,4.23E1,2.68E1,1.46E2,1.574449E2,3.100226E1,4.54E1,-5.030388E-2,1.0749156E2,2.83E1,2E0,2E2,5.1551405E-2,-5.0594546E-2,3.4292786E1,6.162784E-4,2.0171566E-2,8.6E1,9.11954E1,7.205432E1,6.434544E1,-2.0126827E-2,8.635377E1,7.762934E1,4.3E1,-7.8147715E-3,-4.6583813E-2,-4.5860983E-2,-4.7883685E-3,2.8835986E-2,-1.9938624E-2,-8.6679235E-3,-4.503435E-2,-3.300453E-2,2.6659168E-2,3.244443E-2,-7.71097E-3,3.7367463E-2,1.784543E-2,-2.2549527E-2,3.7106253E-2],"split_indices":[1,7,5,5,5,1,1,5,5,0,1,5,0,4,0,0,5,0,0,4,2,2,2,0,2,2,7,0,0,0,0,0,0,0,0,0,0,0,0,0,0,0,0],"split_type":[0,0,0,0,0,0,0,0,0,0,0,0,0,0,0,0,0,0,0,0,0,0,0,0,0,0,0,0,0,0,0,0,0,0,0,0,0,0,0,0,0,0,0],"sum_hessian":[1.7700139E2,9.986388E1,7.713751E1,5.0168163E1,4.9695713E1,1.5732834E1,6.1404675E1,4.741955E1,2.7486129E0,7.2329974E0,4.2462715E1,8.491403E0,7.241431E0,3.1227913E1,3.0176762E1,2.5440897E1,2.1978655E1,1.498746E0,1.2498668E0,1.9227304E1,2.323541E1,5.492322E0,2.9990807E0,1.2490584E0,5.992373E0,2.573139E1,5.496524E0,1.074002E1,1.1238635E1,3.7450929E0,1.5482212E1,2.1985788E1,1.2496219E0,1.9977475E0,3.4945743E0,1.2497246E0,1.749356E0,4.743774E0,1.2485993E0,1.4241231E1,1.1490159E1,3.7484567E0,1.7480673E0],"tree_param":{"num_deleted":"0","num_feature":"8","num_nodes":"43","size_leaf_vector":"1"}},{"base_weights":[1.7653467E-2,-6.5532553E-1,9.8527217E-1,-1.2260859E0,-4.9463388E-2,-1.7913163E-1,1.2869791E0,-1.3146713E0,3.5930995E-2,-4.952172E-2,2.5356933E-1,-8.008549E-1,9.690994E-1,8.879372E-1,1.63941E0,-1.6548165E0,-9.251491E-1,-1.1177832E0,5.582579E-1,-3.2937113E-2,-2.1057391E-1,3.9865393E-2,-7.816587E-3,1.9083996E-1,1.127558E0,5.069546E-2,7.593526E-1,-5.222118E-2,-2.8528294E-2,-7.922068E-3,-3.8928367E-2,-4.479361E-2,1.246358E-2,-1.6215561E-2,2.6994783E-2,1.907554E-2,-2.959919E-2,-3.3172704E-2,1.6282145E-2,3.6628775E-2,-7.659576E-3,4.1938913E-3,3.1205395E-2],"categories":[],"categories_nodes":[],"categories_segments":[],"categories_sizes":[],"default_left":[0,0,0,0,0,0,0,0,0,0,0,0,0,0,0,0,0,0,0,0,0,0,0,0,0,0,0,0,0,0,0,0,0,0,0,0,0,0,0,0,0,0,0],"id":3,"left_children":[1,3,5,7,9,11,13,15,-1,-1,17,19,21,23,25,27,29,31,33,-1,35,-1,-1,37,39,-1,41,-1,-1,-1,-1,-1,-1,-1,-1,-1,-1,-1,-1,-1,-1,-1,-1],"loss_changes":[1.20270256E2,3.7613647E1,2.6843864E1,1.3610657E1,2.6568197E1,1.2531738E1,7.022835E0,5.6975403E0,0E0,0E0,1.9920422E1,1.7379694E0,3.1051788E0,4.8721027E0,8.540344E-2,2.8755188E-2,6.477972E0,5.643407E0,1.4918189E1,0E0,3.909709E0,0E0,0E0,4.704089E0,3.2128696E0,0E0,4.6134496E-1,0E0,0E0,0E0,0E0,0E0,0E0,0E0,0E0,0E0,0E0,0E0,0E0,0E0,0E0,0E0,0E0],"parents":[2147483647,0,0,1,1,2,2,3,3,4,4,5,5,6,6,7,7,10,10,11,11,12,12,13,13,14,14,15,15,16,16,17,17,18,18,20,20,23,23,24,24,26,26],"right_children":[2,4,6,8,10,12,14,16,-1,-1,18,20,22,24,26,28,30,32,34,-1,36,-1,-1,38,40,-1,42,-1,-1,-1,-1,-1,-1,-1,-1,-1,-1,-1,-1,-1,-1,-1,-1],"split_conditions":[1.27402565E2,2.9E1,3E1,4.54E1,2.68E1,1.52E2,1.574449E2,3.100226E1,3.5930995E-2,-4.952172E-2,9.5E1,2.83E1,5.4E1,3.05E-1,1.136E0,6.5344775E-1,3.3982582E1,7.4571306E-1,2.5283954E-1,-3.2937113E-2,1.3623744E2,3.9865393E-2,-7.816587E-3,1.2971773E2,2.8786725E2,5.069546E-2,3.564815E1,-5.222118E-2,-2.8528294E-2,-7.922068E-3,-3.8928367E-2,-4.479361E-2,1.246358E-2,-1.6215561E-2,2.6994783E-2,1.907554E-2,-2.959919E-2,-3.3172704E-2,1.6282145E-2,3.6628775E-2,-7.659576E-3,4.1938913E-3,3.1205395E-2],"split_indices":[1,7,5,5,5,1,1,5,0,0,1,5,7,6,6,6,5,6,6,0,1,0,0,1,4,0,3,0,0,0,0,0,0,0,0,0,0,0,0,0,0,0,0],"split_type":[0,0,0,0,0,0,0,0,0,0,0,0,0,0,0,0,0,0,0,0,0,0,0,0,0,0,0,0,0,0,0,0,0,0,0,0,0,0,0,0,0,0,0],"sum_hessian":[1.8270233E2,1.0794754E2,7.475479E1,5.505683E1,5.2890713E1,1.546719E1,5.92876E1,5.3557007E1,1.4998267E0,7.7088575E0,4.5181854E1,1.0230368E1,5.236822E0,2.9455692E1,2.9831911E1,2.6856552E1,2.6700453E1,7.7285085E0,3.7453346E1,6.2334976E0,3.99687E0,3.9891021E0,1.2477201E0,7.994568E0,2.1461124E1,2.7344557E1,2.4873538E0,2.262297E1,4.2335825E0,1.0238051E1,1.64624E1,6.22965E0,1.4988588E0,8.743687E0,2.870966E1,1.9981918E0,1.9986782E0,1.24927E0,6.745298E0,2.0213E1,1.2481238E0,1.2429595E0,1.2443943E0],"tree_param":{"num_deleted":"0","num_feature":"8","num_nodes":"43","size_leaf_vector":"1"}},{"base_weights":[-7.709473E-2,-4.9060088E-1,1.3706758E0,-1.383038E0,-1.5852238E-1,1.4305209E0,-8.120402E-3,-1.4948467E0,1.7543864E-2,-6.5378606E-1,2.504736E-1,1.4697345E0,4.100104E-3,-1.562629E0,1.2016876E-3,-1.2913746E0,-1.5653875E-1,-6.27301E-1,5.494595E-1,4.307751E-3,1.5113189E0,-4.8267968E-2,-5.4460037E-3,3.2643275E-3,-4.2222336E-2,-2.849252E-2,5.2235182E-3,3.5676684E-3,-2.801125E-2,2.1272248E-2,-3.5859123E-2,4.65727E-2,1.32510085E-2],"categories":[],"categories_nodes":[],"categories_segments":[],"categories_sizes":[],"default_left":[0,0,0,0,0,0,0,0,0,0,0,0,0,0,0,0,0,0,0,0,0,0,0,0,0,0,0,0,0,0,0,0,0],"id":4,"left_children":[1,3,5,7,9,11,-1,13,-1,15,17,19,-1,21,-1,23,25,27,29,-1,31,-1,-1,-1,-1,-1,-1,-1,-1,-1,-1,-1,-1],"loss_changes":[1.07569626E2,4.1160545E1,4.3097076E0,9.176956E0,2.100542E1,1.7619934E0,0E0,3.806816E0,0E0,1.463987E1,1.5323938E1,1.8480606E0,0E0,1.9136353E0,0E0,3.463459E0,7.362303E0,3.5335927E0,1.2852697E1,0E0,9.0600586E-1,0E0,0E0,0E0,0E0,0E0,0E0,0E0,0E0,0E0,0E0,0E0,0E0],"parents":[2147483647,0,0,1,1,2,2,3,3,4,4,5,5,7,7,9,9,10,10,11,11,13,13,15,15,16,16,17,17,18,18,20,20],"right_children":[2,4,6,8,10,12,-1,14,-1,16,18,20,-1,22,-1,24,26,28,30,-1,32,-1,-1,-1,-1,-1,-1,-1,-1,-1,-1,-1,-1],"split_conditions":[1.52E2,1E2,6.3E1,1.5559213E2,2.9E1,5.43E2,-8.120402E-3,5.1E1,1.7543864E-2,2.9101166E1,2.5586924E-1,9.5E1,4.100104E-3,1.154E0,1.2016876E-3,5E1,1.12100426E2,7.02253E1,5.9E1,4.307751E-3,9.2E1,-4.8267968E-2,-5.4460037E-3,3.2643275E-3,-4.2222336E-2,-2.849252E-2,5.2235182E-3,3.5676684E-3,-2.801125E-2,2.1272248E-2,-3.5859123E-2,4.65727E-2,1.32510085E-2],"split_indices":[1,1,7,4,7,4,0,7,0,3,6,4,0,6,0,4,1,2,7,0,2,0,0,0,0,0,0,0,0,0,0,0,0],"split_type":[0,0,0,0,0,0,0,0,0,0,0,0,0,0,0,0,0,0,0,0,0,0,0,0,0,0,0,0,0,0,0,0,0],"sum_hessian":[1.7756012E2,1.3862715E2,3.8932972E1,3.673627E1,1.0189088E2,3.7687317E1,1.2456551E0,3.498864E1,1.7476311E0,4.581446E1,5.6076416E1,3.644676E1,1.2405565E0,3.349157E1,1.4970722E0,1.93746E1,2.643986E1,1.396864E1,4.2107777E1,1.2435191E0,3.520324E1,3.224552E1,1.2460485E0,1.4875054E0,1.7887094E1,7.228078E0,1.9211782E1,4.244204E0,9.724436E0,3.912236E1,2.985415E0,3.3465805E1,1.7374372E0],"tree_param":{"num_deleted":"0","num_feature":"8","num_nodes":"33","size_leaf_vector":"1"}},{"base_weights":[-1.6382905E-2,-1.2701716E0,3.3085895E-1,-4.6620004E-2,-3.0649623E-1,-3.3722258E-1,7.404103E-1,5.119292E-1,-1.0354639E0,-1.0779067E0,3.5781767E-2,-1.154294E0,8.431629E-1,-3.8884E-3,2.986707E-2,-9.837863E-3,-3.6227725E-2,-1.2563732E0,4.2236935E-2,-1.0337586E0,2.225838E-1,-4.1295595E-2,-1.1395178E-2,1.94921E-1,1.017676E0,-4.365728E-2,6.9062994E-3,2.123515E-2,-1.9304154E-2,1.6234269E-3,-4.2938966E-2,-7.7560457E-4,3.0820638E-2,-2.324591E-2,1.3235488E-2,3.188318E-2,-2.2270301E-2],"categories":[],"categories_nodes":[],"categories_segments":[],"categories_sizes":[],"default_left":[0,0,0,0,0,0,0,0,0,0,0,0,0,0,0,0,0,0,0,0,0,0,0,0,0,0,0,0,0,0,0,0,0,0,0,0,0],"id":5,"left_children":[1,3,5,-1,7,9,11,13,15,17,19,21,23,-1,-1,-1,-1,25,27,29,31,-1,-1,33,35,-1,-1,-1,-1,-1,-1,-1,-1,-1,-1,-1,-1],"loss_changes":[7.895405E1,1.0281105E1,3.9117935E1,0E0,6.611803E0,1.5144026E1,1.8179668E1,1.8266915E0,3.0090666E-1,3.7202148E0,7.68846E0,3.3225203E-1,9.350876E0,0E0,0E0,0E0,0E0,5.022526E0,2.047653E0,2.5545506E0,6.545009E0,0E0,0E0,4.9132185E0,6.0489197E0,0E0,0E0,0E0,0E0,0E0,0E0,0E0,0E0,0E0,0E0,0E0,0E0],"parents":[2147483647,0,0,1,1,2,2,4,4,5,5,6,6,7,7,8,8,9,9,10,10,11,11,12,12,17,17,18,18,19,19,20,20,23,23,24,24],"right_children":[2,4,6,-1,8,10,12,14,16,18,20,22,24,-1,-1,-1,-1,26,28,30,32,-1,-1,34,36,-1,-1,-1,-1,-1,-1,-1,-1,-1,-1,-1,-1],"split_conditions":[2.79E1,4E1,2.9E1,-4.6620004E-2,5.6E1,2.9101166E1,8.5E1,4.9E1,5E0,8.03E-1,9.6E1,7.6E1,2.5586924E-1,-3.8884E-3,2.986707E-2,-9.837863E-3,-3.6227725E-2,3.7026115E1,2.1E1,1E0,4.193757E1,-4.1295595E-2,-1.1395178E-2,3.3E1,1.394E0,-4.365728E-2,6.9062994E-3,2.123515E-2,-1.9304154E-2,1.6234269E-3,-4.2938966E-2,-7.7560457E-4,3.0820638E-2,-2.324591E-2,1.3235488E-2,3.188318E-2,-2.2270301E-2],"split_indices":[5,7,7,0,7,3,4,7,0,6,4,4,6,0,0,0,0,5,3,0,5,0,0,7,6,0,0,0,0,0,0,0,0,0,0,0,0],"split_type":[0,0,0,0,0,0,0,0,0,0,0,0,0,0,0,0,0,0,0,0,0,0,0,0,0,0,0,0,0,0,0,0,0,0,0,0,0],"sum_hessian":[1.7938489E2,3.8329693E1,1.410552E2,2.9135826E1,9.193866E0,5.3674755E1,8.738045E1,4.471436E0,4.7224298E0,1.7344181E1,3.6330574E1,3.9685571E0,8.341189E1,2.236607E0,2.234829E0,1.4925195E0,3.2299104E0,1.4855686E1,2.4884942E0,4.7277465E0,3.1602827E1,2.479633E0,1.488924E0,1.8141369E1,6.527052E1,1.3121432E1,1.7342536E0,1.246385E0,1.2421093E0,1.4964827E0,3.2312636E0,2.4887722E1,6.715106E0,3.2391248E0,1.4902243E1,6.4026146E1,1.2443764E0],"tree_param":{"num_deleted":"0","num_feature":"8","num_nodes":"37","size_leaf_vector":"1"}},{"base_weights":[-2.7479624E-2,-6.566939E-1,8.561598E-1,-1.3713461E0,-2.8123364E-1,-2.5021842E-1,1.1732403E0,-1.5079464E0,1.4449578E-2,-1.472771E0,-2.3752723E-2,-7.029345E-1,6.430474E-1,7.672605E-1,1.544561E0,-4.6578884E-2,-5.544112E-3,-2.7259383E-3,-4.8453175E-2,-7.2113204E-1,4.9277806E-1,-9.67028E-1,-2.0467602E-1,-7.536993E-2,3.3371028E-2,9.2149687E-1,2.8614247E-2,8.886362E-3,1.5997736E0,-4.2358626E-2,-8.095114E-3,1.8489752E-2,-2.072711E-2,-5.028016E-3,-4.3135054E-2,2.278883E-2,-2.2677436E-2,1.8038237E-2,-2.1533133E-2,3.5051867E-2,1.123614E-2,-2.0500714E-2,3.55769E-2,4.886883E-2,1.5838977E-2],"categories":[],"categories_nodes":[],"categories_segments":[],"categories_sizes":[],"default_left":[0,0,0,0,0,0,0,0,0,0,0,0,0,0,0,0,0,0,0,0,0,0,0,0,0,0,0,0,0,0,0,0,0,0,0,0,0,0,0,0,0,0,0,0,0],"id":6,"left_children":[1,3,5,7,9,11,13,15,-1,17,19,21,23,25,27,-1,-1,-1,-1,29,31,33,35,37,-1,39,41,-1,43,-1,-1,-1,-1,-1,-1,-1,-1,-1,-1,-1,-1,-1,-1,-1,-1],"loss_changes":[1.0091326E2,2.8053059E1,2.6780216E1,9.900986E0,2.1668041E1,7.586525E0,7.687813E0,1.7232132E0,0E0,2.3224754E0,2.1675467E1,1.4056144E0,2.2606606E0,3.4032955E0,1.5769424E0,0E0,0E0,0E0,0E0,7.5972033E0,5.4851875E0,2.655675E0,3.4924912E0,1.9475718E0,0E0,2.9211922E0,5.9454684E0,0E0,2.4261475E-2,0E0,0E0,0E0,0E0,0E0,0E0,0E0,0E0,0E0,0E0,0E0,0E0,0E0,0E0,0E0,0E0],"parents":[2147483647,0,0,1,1,2,2,3,3,4,4,5,5,6,6,7,7,9,9,10,10,11,11,12,12,13,13,14,14,19,19,20,20,21,21,22,22,23,23,25,25,26,26,28,28],"right_children":[2,4,6,8,10,12,14,16,-1,18,20,22,24,26,28,-1,-1,-1,-1,30,32,34,36,38,-1,40,42,-1,44,-1,-1,-1,-1,-1,-1,-1,-1,-1,-1,-1,-1,-1,-1,-1,-1],"split_conditions":[1.27402565E2,1E2,3.021416E1,1.5559213E2,2.7E1,1.5489636E2,1.574449E2,5.1E1,1.4449578E-2,5.2E1,2.9E1,2.83E1,6E0,2E2,1.05E2,-4.6578884E-2,-5.544112E-3,-2.7259383E-3,-4.8453175E-2,2.9101166E1,8.967838E1,7.2502426E1,1.35E2,2.126516E1,3.3371028E-2,8E1,4.3E1,8.886362E-3,4.5E1,-4.2358626E-2,-8.095114E-3,1.8489752E-2,-2.072711E-2,-5.028016E-3,-4.3135054E-2,2.278883E-2,-2.2677436E-2,1.8038237E-2,-2.1533133E-2,3.5051867E-2,1.123614E-2,-2.0500714E-2,3.55769E-2,4.886883E-2,1.5838977E-2],"split_indices":[1,1,5,4,5,1,1,7,0,4,7,5,0,4,4,0,0,0,0,3,2,2,1,3,0,2,7,0,5,0,0,0,0,0,0,0,0,0,0,0,0,0,0,0,0],"split_type":[0,0,0,0,0,0,0,0,0,0,0,0,0,0,0,0,0,0,0,0,0,0,0,0,0,0,0,0,0,0,0,0,0,0,0,0,0,0,0,0,0,0,0,0,0],"sum_hessian":[1.7948795E2,1.0498673E2,7.450121E1,3.5246326E1,6.97404E1,1.664238E1,5.785883E1,3.299984E1,2.2464864E0,1.1553707E1,5.81867E1,1.1186184E1,5.456197E0,2.910427E1,2.8754559E1,3.1754053E1,1.2457886E0,1.2318875E0,1.0321819E1,2.459047E1,3.359623E1,6.6961737E0,4.49001E0,2.4876318E0,2.968565E0,2.3872017E1,5.232254E0,1.4874936E0,2.7267065E1,8.87553E0,1.5714939E1,3.0855042E1,2.7411861E0,2.9844995E0,3.7116742E0,1.4956214E0,2.9943886E0,1.2427046E0,1.2449272E0,1.5664741E1,8.207277E0,3.4929023E0,1.7393517E0,2.6038166E1,1.2288979E0],"tree_param":{"num_deleted":"0","num_feature":"8","num_nodes":"45","size_leaf_vector":"1"}},{"base_weights":[-8.105451E-3,-5.4483205E-1,9.6593755E-1,-1.3887272E0,-1.6502523E-1,-1.0999385E-1,1.2471931E0,-1.4688419E0,-3.055867E-1,-1.3071357E0,1.6828467E-1,-7.450412E-1,4.4209522E-1,5.6436074E-1,1.3379831E0,-3.318478E-3,-1.5179003E0,-2.183619E-2,9.024154E-3,-1.4214423E0,-7.0962656E-1,-4.924696E-1,7.2965866E-1,2.1136241E-2,-3.5510667E-2,-1.9485187E-2,7.3135805E-1,-1.7459884E-2,9.9928176E-1,1.3867707E0,6.0127145E-3,-4.7079477E-2,-4.108263E-3,-2.226501E-2,-4.752738E-2,-3.6803056E-2,4.579863E-3,-2.8933814E-2,-2.1621502E-4,-4.6331287E-4,3.1856444E-2,2.987224E-2,-7.981738E-3,3.524873E-2,8.458268E-3,3.1081093E-2,4.743395E-2],"categories":[],"categories_nodes":[],"categories_segments":[],"categories_sizes":[],"default_left":[0,0,0,0,0,0,0,0,0,0,0,0,0,0,0,0,0,0,0,0,0,0,0,0,0,0,0,0,0,0,0,0,0,0,0,0,0,0,0,0,0,0,0,0,0,0,0],"id":7,"left_children":[1,3,5,7,9,11,13,15,17,19,21,23,25,27,29,-1,31,-1,-1,33,35,37,39,-1,-1,-1,41,-1,43,45,-1,-1,-1,-1,-1,-1,-1,-1,-1,-1,-1,-1,-1,-1,-1,-1,-1],"loss_changes":[9.391553E1,3.6890232E1,1.9450958E1,2.6585693E0,3.1055166E1,5.288791E0,2.3866653E0,2.0363617E0,1.17383E0,2.4888611E-1,2.3946095E1,5.2537E0,3.0625265E0,4.409114E0,2.1640778E0,0E0,2.046486E0,0E0,0E0,4.2324257E-1,2.3962827E0,6.819728E0,8.626446E0,0E0,0E0,0E0,2.0971956E0,0E0,4.164667E-1,1.2265396E0,0E0,0E0,0E0,0E0,0E0,0E0,0E0,0E0,0E0,0E0,0E0,0E0,0E0,0E0,0E0,0E0,0E0],"parents":[2147483647,0,0,1,1,2,2,3,3,4,4,5,5,6,6,7,7,8,8,9,9,10,10,11,11,12,12,13,13,14,14,16,16,19,19,20,20,21,21,22,22,26,26,28,28,29,29],"right_children":[2,4,6,8,10,12,14,16,18,20,22,24,26,28,30,-1,32,-1,-1,34,36,38,40,-1,-1,-1,42,-1,44,46,-1,-1,-1,-1,-1,-1,-1,-1,-1,-1,-1,-1,-1,-1,-1,-1,-1],"split_conditions":[1.3324814E2,1E2,3E1,4.4E1,2.79E1,1.46E2,2.6344297E1,5E1,1E1,2.71E1,3E1,1.35E2,2.8E1,2.7E1,1.461E0,-3.318478E-3,1.154E0,-2.183619E-2,9.024154E-3,1.6E1,3.3E1,2.917312E1,3.25E-1,2.1136241E-2,-3.5510667E-2,-1.9485187E-2,5.4E1,-1.7459884E-2,2.4017048E1,1.574449E2,6.0127145E-3,-4.7079477E-2,-4.108263E-3,-2.226501E-2,-4.752738E-2,-3.6803056E-2,4.579863E-3,-2.8933814E-2,-2.1621502E-4,-4.6331287E-4,3.1856444E-2,2.987224E-2,-7.981738E-3,3.524873E-2,8.458268E-3,3.1081093E-2,4.743395E-2],"split_indices":[1,1,5,7,5,1,3,2,0,5,7,1,7,7,6,0,6,0,0,3,7,3,6,0,0,0,7,0,3,1,0,0,0,0,0,0,0,0,0,0,0,0,0,0,0,0,0],"split_type":[0,0,0,0,0,0,0,0,0,0,0,0,0,0,0,0,0,0,0,0,0,0,0,0,0,0,0,0,0,0,0,0,0,0,0,0,0,0,0,0,0,0,0,0,0,0,0],"sum_hessian":[1.7763463E2,1.1481101E2,6.2823624E1,3.4810013E1,8.0001E1,1.31453905E1,4.9678234E1,3.208104E1,2.7289746E0,1.7412867E1,6.258813E1,5.9508533E0,7.194537E0,6.6769567E0,4.3001278E1,1.2318192E0,3.084922E1,1.4905992E0,1.2383754E0,1.3459123E1,3.9537451E0,2.8805695E1,3.3782436E1,1.2416041E0,4.709249E0,1.2462258E0,5.948312E0,1.7434466E0,4.93351E0,4.1022816E1,1.9784597E0,2.9610374E1,1.2388443E0,3.6768131E0,9.782309E0,2.20728E0,1.7464651E0,1.4101934E1,1.470376E1,1.0711784E1,2.3070652E1,4.703296E0,1.2450155E0,3.450537E0,1.4829729E0,1.6884449E1,2.4138369E1],"tree_param":{"num_deleted":"0","num_feature":"8","num_nodes":"47","size_leaf_vector":"1"}},{"base_weights":[-5.477412E-3,-5.15887E-1,9.015386E-1,-1.2765352E0,-1.6919316E-1,3.5983983E-1,1.2846842E0,-1.4110943E0,1.5004563E-2,-4.948383E-1,3.878732E-1,-5.7646966E-1,5.7351995E-1,1.3467531E0,-8.634415E-3,-1.4807558E0,1.3215635E-3,-1.3621471E0,-2.8465283E-1,-9.37075E-2,8.81269E-1,-9.324088E-1,4.5222975E-3,7.0280635E-1,-2.373063E-2,1.3881865E0,2.9602977E-3,-4.594286E-2,-3.700365E-3,-4.4839885E-2,-1.4396454E-2,-1.7729297E-2,8.467191E-3,1.5743218E-2,-1.599349E-2,-2.2772818E-3,3.6258217E-2,-4.9530966E-3,-3.65065E-2,2.5442373E-2,1.0964301E-3,3.9903196E-3,4.291919E-2],"categories":[],"categories_nodes":[],"categories_segments":[],"categories_sizes":[],"default_left":[0,0,0,0,0,0,0,0,0,0,0,0,0,0,0,0,0,0,0,0,0,0,0,0,0,0,0,0,0,0,0,0,0,0,0,0,0,0,0,0,0,0,0],"id":8,"left_children":[1,3,5,7,9,11,13,15,-1,17,19,21,23,25,-1,27,-1,29,31,33,35,37,-1,39,-1,41,-1,-1,-1,-1,-1,-1,-1,-1,-1,-1,-1,-1,-1,-1,-1,-1,-1],"loss_changes":[8.262727E1,2.9900778E1,1.2877377E1,9.217289E0,1.463194E1,5.9357653E0,4.02396E0,3.44664E0,0E0,8.849938E0,7.1933846E0,1.6170897E0,4.668468E0,1.7255554E0,0E0,2.0027466E0,0E0,4.0754128E-1,7.4694786E0,4.6411805E0,4.7533283E0,6.654358E-1,0E0,2.0812798E0,0E0,1.6632156E0,0E0,0E0,0E0,0E0,0E0,0E0,0E0,0E0,0E0,0E0,0E0,0E0,0E0,0E0,0E0,0E0,0E0],"parents":[2147483647,0,0,1,1,2,2,3,3,4,4,5,5,6,6,7,7,9,9,10,10,11,11,12,12,13,13,15,15,17,17,18,18,19,19,20,20,21,21,23,23,25,25],"right_children":[2,4,6,8,10,12,14,16,-1,18,20,22,24,26,-1,28,-1,30,32,34,36,38,-1,40,-1,42,-1,-1,-1,-1,-1,-1,-1,-1,-1,-1,-1,-1,-1,-1,-1,-1,-1],"split_conditions":[1.3324814E2,1E2,1.5489636E2,1.5559213E2,5.210856E-1,2.808264E1,6.2E1,5.1E1,1.5004563E-2,1.14E2,2.917312E1,4.1E1,6.1E1,1.461E0,-8.634415E-3,1.101E0,1.3215635E-3,4.71E-1,2.917312E1,6.92E-1,2.9E1,1.41E2,4.5222975E-3,1.51E2,-2.373063E-2,1E2,2.9602977E-3,-4.594286E-2,-3.700365E-3,-4.4839885E-2,-1.4396454E-2,-1.7729297E-2,8.467191E-3,1.5743218E-2,-1.599349E-2,-2.2772818E-3,3.6258217E-2,-4.9530966E-3,-3.65065E-2,2.5442373E-2,1.0964301E-3,3.9903196E-3,4.291919E-2],"split_indices":[1,1,1,4,6,3,7,7,0,4,3,7,7,6,0,6,0,6,3,6,7,1,0,1,0,4,0,0,0,0,0,0,0,0,0,0,0,0,0,0,0,0,0],"split_type":[0,0,0,0,0,0,0,0,0,0,0,0,0,0,0,0,0,0,0,0,0,0,0,0,0,0,0,0,0,0,0,0,0,0,0,0,0,0,0,0,0,0,0],"sum_hessian":[1.7647539E2,1.1320321E2,6.327218E1,3.46027E1,7.860052E1,2.7015833E1,3.6256348E1,3.235782E1,2.244879E0,4.9674137E1,2.8926378E1,4.704353E0,2.231148E1,3.50177E1,1.2386447E0,3.0862741E1,1.4950761E0,8.620759E0,4.1053375E1,1.5048406E1,1.3877973E1,2.9689925E0,1.7353604E0,2.0823465E1,1.4880146E0,3.3783894E1,1.2338078E0,2.9628494E1,1.2342486E0,6.8915353E0,1.7292237E0,2.6624294E1,1.4429081E1,6.1698627E0,8.878543E0,3.732315E0,1.0145658E1,1.230467E0,1.7385255E0,1.6871798E1,3.9516675E0,1.2404921E0,3.25434E1],"tree_param":{"num_deleted":"0","num_feature":"8","num_nodes":"43","size_leaf_vector":"1"}},{"base_weights":[-1.6729416E-2,-4.241966E-1,1.0513963E0,-1.3216896E0,-9.755521E-2,5.2005607E-1,1.3027333E0,-1.4220259E0,-7.662442E-1,-9.868632E-1,2.2188343E-1,-2.8992984E-1,9.446259E-1,2.468692E-1,1.3908213E0,-5.63009E-1,-1.5092226E0,-3.6449778E-1,-3.540982E-2,-1.1737477E0,2.2042808E-1,-1.5610145E-1,7.8489184E-1,-2.7576381E-2,1.1653138E-1,1.2584157E0,-1.5200865E-1,-9.5385425E-3,1.9730337E-2,1.4406269E0,7.918555E-3,-3.290683E-2,1.17922425E-2,-4.8235435E-2,-1.581253E-2,6.189659E-3,-3.2117333E-2,-3.888323E-2,9.972405E-4,-2.0450857E-2,2.8600829E-2,-3.509832E-2,9.0230576E-4,-8.192138E-3,3.271496E-2,1.7904425E-2,-2.1940261E-2,4.2618487E-2,3.7681772E-3,-2.349214E-2,1.642502E-2,7.956185E-3,4.4872813E-2],"categories":[],"categories_nodes":[],"categories_segments":[],"categories_sizes":[],"default_left":[0,0,0,0,0,0,0,0,0,0,0,0,0,0,0,0,0,0,0,0,0,0,0,0,0,0,0,0,0,0,0,0,0,0,0,0,0,0,0,0,0,0,0,0,0,0,0,0,0,0,0,0,0],"id":9,"left_children":[1,3,5,7,9,11,13,15,17,19,21,23,25,27,29,31,33,35,-1,37,39,41,43,-1,45,47,49,-1,-1,51,-1,-1,-1,-1,-1,-1,-1,-1,-1,-1,-1,-1,-1,-1,-1,-1,-1,-1,-1,-1,-1,-1,-1],"loss_changes":[7.66699E1,3.7244953E1,5.819393E0,8.018074E-1,2.7078325E1,6.218778E0,2.6666374E0,1.2159233E0,7.943373E-1,5.9377327E0,1.5099691E1,1.823451E0,4.174986E0,1.0694445E0,1.2840843E0,2.542512E0,1.5199547E0,2.3098555E0,0E0,3.2854595E0,3.43742E0,8.140823E0,9.491747E0,0E0,2.4580698E0,1.4952583E0,1.9595386E0,0E0,0E0,1.4291916E0,0E0,0E0,0E0,0E0,0E0,0E0,0E0,0E0,0E0,0E0,0E0,0E0,0E0,0E0,0E0,0E0,0E0,0E0,0E0,0E0,0E0,0E0,0E0],"parents":[2147483647,0,0,1,1,2,2,3,3,4,4,5,5,6,6,7,7,8,8,9,9,10,10,11,11,12,12,13,13,14,14,15,15,16,16,17,17,19,19,20,20,21,21,22,22,24,24,25,25,26,26,29,29],"right_children":[2,4,6,8,10,12,14,16,18,20,22,24,26,28,30,32,34,36,-1,38,40,42,44,-1,46,48,50,-1,-1,52,-1,-1,-1,-1,-1,-1,-1,-1,-1,-1,-1,-1,-1,-1,-1,-1,-1,-1,-1,-1,-1,-1,-1],"split_conditions":[1.4371327E2,2.79E1,1.5804584E2,2.7E1,1.00446915E2,2.99E-1,2.86E1,5E1,2.77E1,7.820817E-1,5.210856E-1,7.205432E1,3.86E1,6E0,1.461E0,5.27E-1,1.33E2,1.26E2,-3.540982E-2,1.5559213E2,3E0,1.07807755E2,2.9101166E1,-2.7576381E-2,2.917312E1,1.6657043E2,4.15E1,-9.5385425E-3,1.9730337E-2,1.05E2,7.918555E-3,-3.290683E-2,1.17922425E-2,-4.8235435E-2,-1.581253E-2,6.189659E-3,-3.2117333E-2,-3.888323E-2,9.972405E-4,-2.0450857E-2,2.8600829E-2,-3.509832E-2,9.0230576E-4,-8.192138E-3,3.271496E-2,1.7904425E-2,-2.1940261E-2,4.2618487E-2,3.7681772E-3,-2.349214E-2,1.642502E-2,7.956185E-3,4.4872813E-2],"split_indices":[1,5,1,5,1,6,5,4,5,6,6,2,5,0,6,6,1,1,0,4,0,4,3,0,3,4,5,0,0,4,0,0,0,0,0,0,0,0,0,0,0,0,0,0,0,0,0,0,0,0,0,0,0],"split_type":[0,0,0,0,0,0,0,0,0,0,0,0,0,0,0,0,0,0,0,0,0,0,0,0,0,0,0,0,0,0,0,0,0,0,0,0,0,0,0,0,0,0,0,0,0,0,0,0,0,0,0,0,0],"sum_hessian":[1.741363E2,1.26487045E2,4.7649258E1,3.2938263E1,9.354878E1,1.628694E1,3.1362318E1,2.6577175E1,6.361087E0,2.4170221E1,6.937856E1,5.710219E0,1.0576721E1,2.7078097E0,2.8654509E1,3.1363418E0,2.3440832E1,4.182981E0,2.1781058E0,2.0954346E1,3.2158744E0,4.1942513E1,2.7436052E1,1.7458278E0,3.9643912E0,8.10892E0,2.4678016E0,1.2353555E0,1.4724542E0,2.7174992E1,1.4795158E0,1.9180229E0,1.2183188E0,2.0722784E1,2.7180483E0,2.7044232E0,1.478558E0,1.895856E1,1.995785E0,1.47289E0,1.7429845E0,5.6874175E0,3.6255096E1,6.1728997E0,2.1263153E1,2.7198315E0,1.2445596E0,6.871031E0,1.2378888E0,1.2345729E0,1.2332288E0,1.4778644E0,2.5697128E1],"tree_param":{"num_deleted":"0","num_feature":"8","num_nodes":"53","size_leaf_vector":"1"}},{"base_weights":[-5.7671345E-3,-8.77932E-1,3.8008466E-1,-1.1453261E0,-3.956652E-2,-9.8182046E-1,5.2704036E-1,-1.2382203E0,-1.2405272E-2,6.7540145E-1,-9.6119255E-1,-4.1401025E-2,-3.0469134E-1,9.166438E-3,8.028024E-1,-1.2861723E0,-4.9106193E-1,-2.4467712E-2,3.137644E-2,-1.2986535E-2,1.1249613E0,-7.3321355E-3,-3.6365874E-2,1.5323794E-1,-3.0256536E-2,-3.0181932E-1,8.275125E-1,5.1275826E-1,1.1015999E0,-4.13972E-2,-1.9244969E-2,-2.8468724E-2,1.7617132E-3,5.2110003E-3,3.9438423E-2,-1.7741675E-2,3.4223918E-2,-1.4269185E-2,3.1560235E-2,3.188154E-2,3.5619407E-3,2.1598633E-2,-1.3299926E-2,3.5774317E-2,-2.3180623E-2],"categories":[],"categories_nodes":[],"categories_segments":[],"categories_sizes":[],"default_left":[0,0,0,0,0,0,0,0,0,0,0,0,0,0,0,0,0,0,0,0,0,0,0,0,0,0,0,0,0,0,0,0,0,0,0,0,0,0,0,0,0,0,0,0,0],"id":10,"left_children":[1,3,5,7,9,11,13,15,17,19,21,-1,23,25,27,29,31,-1,-1,-1,33,-1,-1,35,-1,37,39,41,43,-1,-1,-1,-1,-1,-1,-1,-1,-1,-1,-1,-1,-1,-1,-1,-1],"loss_changes":[6.0170036E1,1.2247871E1,2.5328394E1,4.3564987E0,1.0069699E1,2.9293299E0,1.6065178E1,7.435913E-1,4.387456E0,4.79091E0,9.0168E-1,0E0,2.0510077E0,1.0459332E1,5.7987175E0,1.2569923E0,1.0456926E0,0E0,0E0,0E0,9.3047905E-1,0E0,0E0,3.9343445E0,0E0,7.513641E0,1.7600327E0,8.07084E0,6.933613E0,0E0,0E0,0E0,0E0,0E0,0E0,0E0,0E0,0E0,0E0,0E0,0E0,0E0,0E0,0E0,0E0],"parents":[2147483647,0,0,1,1,2,2,3,3,4,4,5,5,6,6,7,7,8,8,9,9,10,10,12,12,13,13,14,14,15,15,16,16,20,20,23,23,25,25,26,26,27,27,28,28],"right_children":[2,4,6,8,10,12,14,16,18,20,22,-1,24,26,28,30,32,-1,-1,-1,34,-1,-1,36,-1,38,40,42,44,-1,-1,-1,-1,-1,-1,-1,-1,-1,-1,-1,-1,-1,-1,-1,-1],"split_conditions":[3E1,4.1E1,9E1,7E0,5.6E1,5.0128466E-1,2.9E1,2.96E1,2.71E1,2.12E-1,5E0,-4.1401025E-2,3.68E1,4.015446E1,4.7333568E-1,3.2E1,1.07807755E2,-2.4467712E-2,3.137644E-2,-1.2986535E-2,2.61E1,-7.3321355E-3,-3.6365874E-2,2.5127167E1,-3.0256536E-2,9.44E-1,1.5559213E2,9E0,1.394E0,-4.13972E-2,-1.9244969E-2,-2.8468724E-2,1.7617132E-3,5.2110003E-3,3.9438423E-2,-1.7741675E-2,3.4223918E-2,-1.4269185E-2,3.1560235E-2,3.188154E-2,3.5619407E-3,2.1598633E-2,-1.3299926E-2,3.5774317E-2,-2.3180623E-2],"split_indices":[5,7,4,0,7,6,7,5,5,6,0,0,5,5,6,7,4,0,0,0,5,0,0,3,0,6,4,0,6,0,0,0,0,0,0,0,0,0,0,0,0,0,0,0,0],"split_type":[0,0,0,0,0,0,0,0,0,0,0,0,0,0,0,0,0,0,0,0,0,0,0,0,0,0,0,0,0,0,0,0,0,0,0,0,0,0,0,0,0,0,0,0,0],"sum_hessian":[1.768058E2,5.3837727E1,1.2296808E2,4.054112E1,1.3296608E1,1.1423183E1,1.115449E2,3.738295E1,3.1581702E0,7.638256E0,5.658352E0,6.53937E0,4.883814E0,3.9117153E1,7.242774E1,3.4450523E1,2.9324257E0,1.9258662E0,1.232304E0,2.2149353E0,5.423321E0,1.9794279E0,3.6789238E0,3.4327593E0,1.4510543E0,2.8802778E1,1.0314374E1,3.8130432E1,3.4297314E1,2.9081635E1,5.368889E0,1.2037872E0,1.7286384E0,1.2199882E0,4.2033324E0,2.185806E0,1.2469532E0,2.6100376E1,2.7024019E0,7.3694863E0,2.9448879E0,3.1541897E1,6.5885344E0,3.3058212E1,1.2391008E0],"tree_param":{"num_deleted":"0","num_feature":"8","num_nodes":"45","size_leaf_vector":"1"}},{"base_weights":[2.116367E-2,-8.635555E-1,3.875618E-1,-1.1478422E0,-3.735051E-2,-1.0094116E0,5.467028E-1,-1.2129024E0,1.4901609E-3,7.361818E-1,-9.7232103E-1,-4.1212883E-2,-3.7078074E-1,2.3328416E-1,9.2266285E-1,-1.3029125E0,-6.579365E-1,-1.7679783E-2,1.045429E0,-2.6494965E-3,-3.755212E-2,-2.6693996E-2,1.4361952E-1,-3.6096728E-1,4.7530288E-1,4.902558E-1,1.1155082E0,-4.060014E-2,-1.9739015E-2,7.425819E-3,-2.6686424E-2,9.652296E-3,3.5249375E-2,-1.1403207E-2,2.1306954E-2,-3.0959718E-2,5.750391E-3,1.874388E-2,-8.47889E-3,2.1094028E-3,2.9841486E-2,3.7252843E-2,-7.908587E-4],"categories":[],"categories_nodes":[],"categories_segments":[],"categories_sizes":[],"default_left":[0,0,0,0,0,0,0,0,0,0,0,0,0,0,0,0,0,0,0,0,0,0,0,0,0,0,0,0,0,0,0,0,0,0,0,0,0,0,0,0,0,0,0],"id":11,"left_children":[1,3,5,7,9,11,13,15,-1,17,19,-1,21,23,25,27,29,-1,31,-1,-1,-1,33,35,37,39,41,-1,-1,-1,-1,-1,-1,-1,-1,-1,-1,-1,-1,-1,-1,-1,-1],"loss_changes":[5.714714E1,1.2085369E1,2.825789E1,3.0507317E0,1.1023648E1,2.538E0,1.3044292E1,9.6328735E-1,0E0,4.0465217E0,1.5897818E0,0E0,1.7636559E0,9.190075E0,3.6909904E0,9.621811E-2,1.7104685E0,0E0,2.9193258E-1,0E0,0E0,0E0,1.4386601E0,7.138399E0,5.2743235E0,3.6286125E0,4.9866104E0,0E0,0E0,0E0,0E0,0E0,0E0,0E0,0E0,0E0,0E0,0E0,0E0,0E0,0E0,0E0,0E0],"parents":[2147483647,0,0,1,1,2,2,3,3,4,4,5,5,6,6,7,7,9,9,10,10,12,12,13,13,14,14,15,15,16,16,18,18,22,22,23,23,24,24,25,25,26,26],"right_children":[2,4,6,8,10,12,14,16,-1,18,20,-1,22,24,26,28,30,-1,32,-1,-1,-1,34,36,38,40,42,-1,-1,-1,-1,-1,-1,-1,-1,-1,-1,-1,-1,-1,-1,-1,-1],"split_conditions":[2.99E1,4.1E1,9E1,8E0,5.6E1,5.12E-1,4.7333568E-1,2.877674E1,1.4901609E-3,1.64E-1,5E0,-4.1212883E-2,7E1,2.7E1,2.9E1,3.3E1,2.9E1,-1.7679783E-2,2.61E1,-2.6494965E-3,-3.755212E-2,-2.6693996E-2,2.5127167E1,2.917312E1,9E0,3.2067844E1,1.136E0,-4.060014E-2,-1.9739015E-2,7.425819E-3,-2.6686424E-2,9.652296E-3,3.5249375E-2,-1.1403207E-2,2.1306954E-2,-3.0959718E-2,5.750391E-3,1.874388E-2,-8.47889E-3,2.1094028E-3,2.9841486E-2,3.7252843E-2,-7.908587E-4],"split_indices":[5,7,4,0,7,6,6,5,0,6,0,0,4,7,7,7,5,0,5,0,0,0,3,3,0,3,6,0,0,0,0,0,0,0,0,0,0,0,0,0,0,0,0],"split_type":[0,0,0,0,0,0,0,0,0,0,0,0,0,0,0,0,0,0,0,0,0,0,0,0,0,0,0,0,0,0,0,0,0,0,0,0,0,0,0,0,0,0,0],"sum_hessian":[1.7426085E2,5.0636097E1,1.23624756E2,3.7383583E1,1.3252514E1,1.2096472E1,1.1152829E2,3.5445026E1,1.9385579E0,7.368731E0,5.8837824E0,6.9692655E0,5.1272063E0,6.1706905E1,4.982138E1,2.9338818E1,6.1062074E0,1.2226177E0,6.1461134E0,1.729175E0,4.1546073E0,2.1888855E0,2.938321E0,1.7715899E1,4.3991005E1,1.6458834E1,3.336255E1,2.619256E1,3.1462576E0,1.2297771E0,4.8764305E0,1.4621085E0,4.684005E0,1.6979992E0,1.2403219E0,7.6093163E0,1.0106583E1,3.689046E1,7.1005454E0,9.60361E0,6.8552237E0,2.996223E1,3.4003165E0],"tree_param":{"num_deleted":"0","num_feature":"8","num_nodes":"43","size_leaf_vector":"1"}},{"base_weights":[-2.7350055E-2,-5.8133197E-1,7.3390275E-1,-1.0363454E0,-1.0231231E-1,-3.3665007E-1,1.0242015E0,-1.1204188E0,2.6156927E-2,-4.3051045E-2,1.5860419E-1,-8.150302E-1,3.21548E-1,6.6259825E-1,1.3672261E0,-1.4294269E0,-7.8616965E-1,-1.1091347E0,4.2529675E-1,-1.0718645E0,-1.0737276E-1,-2.465656E-1,3.001987E-2,1.4091919E-2,8.930724E-1,1.4215672E0,2.3417042E-3,-4.3853838E-2,-1.2626901E-2,-5.5524553E-3,-3.2873455E-2,-3.852409E-2,-2.8596164E-3,-2.9338133E-2,1.6380597E-2,-1.2029148E-2,-4.0239405E-2,-2.974608E-2,2.1843078E-2,-2.1732302E-2,1.2370151E-2,-3.250075E-2,9.952112E-3,3.1299796E-2,-1.2978591E-2,3.068404E-3,4.4371333E-2],"categories":[],"categories_nodes":[],"categories_segments":[],"categories_sizes":[],"default_left":[0,0,0,0,0,0,0,0,0,0,0,0,0,0,0,0,0,0,0,0,0,0,0,0,0,0,0,0,0,0,0,0,0,0,0,0,0,0,0,0,0,0,0,0,0,0,0],"id":12,"left_children":[1,3,5,7,9,11,13,15,-1,-1,17,19,21,23,25,27,29,31,33,35,37,39,-1,41,43,45,-1,-1,-1,-1,-1,-1,-1,-1,-1,-1,-1,-1,-1,-1,-1,-1,-1,-1,-1,-1,-1],"loss_changes":[7.364911E1,2.1919567E1,2.321038E1,9.273777E0,1.773144E1,5.440939E0,6.304104E0,4.0375137E0,0E0,0E0,1.5008699E1,1.6674948E0,3.1942887E0,4.5068474E0,1.91288E0,1.9246674E-1,4.678192E0,1.2526321E0,6.674211E0,7.4289894E-1,3.4721491E0,1.8610677E0,0E0,3.4774482E0,4.8919334E0,1.946373E0,0E0,0E0,0E0,0E0,0E0,0E0,0E0,0E0,0E0,0E0,0E0,0E0,0E0,0E0,0E0,0E0,0E0,0E0,0E0,0E0,0E0],"parents":[2147483647,0,0,1,1,2,2,3,3,4,4,5,5,6,6,7,7,10,10,11,11,12,12,13,13,14,14,15,15,16,16,17,17,18,18,19,19,20,20,21,21,23,23,24,24,25,25],"right_children":[2,4,6,8,10,12,14,16,-1,-1,18,20,22,24,26,28,30,32,34,36,38,40,-1,42,44,46,-1,-1,-1,-1,-1,-1,-1,-1,-1,-1,-1,-1,-1,-1,-1,-1,-1,-1,-1,-1,-1],"split_conditions":[1.27402565E2,2.9E1,3E1,4.54E1,2.68E1,1.46E2,1.574449E2,3.100226E1,2.6156927E-2,-4.3051045E-2,9.4E1,2.83E1,6E0,3.05E-1,1.461E0,6E0,3.3982582E1,4.3E1,1.58E-1,7.205432E1,6.434544E1,1.6108105E2,3.001987E-2,1.2971773E2,2.8786725E2,1.05E2,2.3417042E-3,-4.3853838E-2,-1.2626901E-2,-5.5524553E-3,-3.2873455E-2,-3.852409E-2,-2.8596164E-3,-2.9338133E-2,1.6380597E-2,-1.2029148E-2,-4.0239405E-2,-2.974608E-2,2.1843078E-2,-2.1732302E-2,1.2370151E-2,-3.250075E-2,9.952112E-3,3.1299796E-2,-1.2978591E-2,3.068404E-3,4.4371333E-2],"split_indices":[1,7,5,5,5,1,1,5,0,0,1,5,0,6,6,0,5,7,6,2,2,1,0,1,4,4,0,0,0,0,0,0,0,0,0,0,0,0,0,0,0,0,0,0,0,0,0],"split_type":[0,0,0,0,0,0,0,0,0,0,0,0,0,0,0,0,0,0,0,0,0,0,0,0,0,0,0,0,0,0,0,0,0,0,0,0,0,0,0,0,0,0,0,0,0,0,0],"sum_hessian":[1.7262804E2,1.0005324E2,7.25748E1,5.0715706E1,4.9337536E1,1.5447695E1,5.71271E1,4.8970993E1,1.7447114E0,7.3409715E0,4.1996563E1,8.807851E0,6.6398444E0,2.92376E1,2.7889502E1,2.374374E1,2.5227253E1,6.750207E0,3.5246357E1,6.0847945E0,2.7230558E0,3.9621966E0,2.6776478E0,7.9445205E0,2.129308E1,2.6662907E1,1.2265954E0,2.256995E1,1.1737901E0,9.119755E0,1.6107498E1,5.529143E0,1.2210643E0,2.2296133E0,3.3016743E1,2.4565134E0,3.628281E0,1.2322273E0,1.4908286E0,2.2390184E0,1.7231781E0,1.2421955E0,6.7023253E0,1.9316717E1,1.9763623E0,1.2291622E0,2.5433744E1],"tree_param":{"num_deleted":"0","num_feature":"8","num_nodes":"47","size_leaf_vector":"1"}},{"base_weights":[-4.5138024E-2,-5.776317E-1,7.142849E-1,-1.3257039E0,-2.804064E-1,-2.4630989E-1,9.951557E-1,-1.4249307E0,-8.073725E-1,-1.0244937E0,4.9347103E-2,-8.1366783E-1,4.4722617E-1,6.518707E-1,1.3541942E0,-5.886728E-1,-4.5027435E-2,-1.0108663E0,-1.0404858E-3,-1.1584315E0,-1.1600864E-2,-9.7790235E-1,2.2466873E-1,-3.673499E-1,-3.553097E-2,-1.907056E-2,7.2543883E-1,1.4038655E-1,9.9034435E-1,7.739048E-3,1.4083601E0,9.471756E-4,-2.7278762E-2,-2.8113779E-3,-3.733887E-2,-4.150152E-2,-1.7756447E-2,-2.8025389E-2,2.4323434E-2,-1.2839707E-2,-3.7748374E-2,-2.5667772E-2,1.0982924E-2,-3.0375455E-2,1.43490685E-2,2.858124E-2,-2.5706182E-3,-8.405012E-3,2.9302666E-2,3.3058487E-2,-9.107493E-3,4.314562E-2,1.3172822E-2],"categories":[],"categories_nodes":[],"categories_segments":[],"categories_sizes":[],"default_left":[0,0,0,0,0,0,0,0,0,0,0,0,0,0,0,0,0,0,0,0,0,0,0,0,0,0,0,0,0,0,0,0,0,0,0,0,0,0,0,0,0,0,0,0,0,0,0,0,0,0,0,0,0],"id":13,"left_children":[1,3,5,7,9,11,13,15,17,19,21,23,25,27,29,31,-1,33,-1,35,37,39,41,43,-1,-1,45,47,49,-1,51,-1,-1,-1,-1,-1,-1,-1,-1,-1,-1,-1,-1,-1,-1,-1,-1,-1,-1,-1,-1,-1,-1],"loss_changes":[7.0833374E1,2.2511665E1,1.9731289E1,3.4088516E-1,1.8433823E1,7.1088157E0,6.029503E0,5.798073E-1,1.0603085E0,3.114027E0,9.74138E0,1.1835384E0,2.9793725E0,5.158247E0,1.2092514E0,7.373606E-1,0E0,1.0579567E0,0E0,1.7747993E0,3.5665126E0,6.7867184E-1,7.337222E0,3.6969442E0,0E0,0E0,1.3936095E0,4.9693937E0,2.9697227E0,0E0,9.162903E-2,0E0,0E0,0E0,0E0,0E0,0E0,0E0,0E0,0E0,0E0,0E0,0E0,0E0,0E0,0E0,0E0,0E0,0E0,0E0,0E0,0E0,0E0],"parents":[2147483647,0,0,1,1,2,2,3,3,4,4,5,5,6,6,7,7,8,8,9,9,10,10,11,11,12,12,13,13,14,14,15,15,17,17,19,19,20,20,21,21,22,22,23,23,26,26,27,27,28,28,30,30],"right_children":[2,4,6,8,10,12,14,16,18,20,22,24,26,28,30,32,-1,34,-1,36,38,40,42,44,-1,-1,46,48,50,-1,52,-1,-1,-1,-1,-1,-1,-1,-1,-1,-1,-1,-1,-1,-1,-1,-1,-1,-1,-1,-1,-1,-1],"split_conditions":[1.27402565E2,2.79E1,3.021416E1,2.7E1,1E2,1.46E2,1.5804584E2,4.9E1,6E0,7.820817E-1,1.9259267E-1,1.3623744E2,2E0,4.22E-1,1.05E2,1.5E1,-4.5027435E-2,2.73E1,-1.0404858E-3,9.3E1,3E0,3.2254955E1,6.0097263E1,1.3324814E2,-3.553097E-2,-1.907056E-2,8.0213165E1,4.193757E1,2.989691E2,7.739048E-3,1.97E2,9.471756E-4,-2.7278762E-2,-2.8113779E-3,-3.733887E-2,-4.150152E-2,-1.7756447E-2,-2.8025389E-2,2.4323434E-2,-1.2839707E-2,-3.7748374E-2,-2.5667772E-2,1.0982924E-2,-3.0375455E-2,1.43490685E-2,2.858124E-2,-2.5706182E-3,-8.405012E-3,2.9302666E-2,3.3058487E-2,-9.107493E-3,4.314562E-2,1.3172822E-2],"split_indices":[1,5,5,5,1,1,1,4,0,6,6,1,0,6,4,3,0,5,0,1,0,5,2,1,0,0,2,5,4,0,1,0,0,0,0,0,0,0,0,0,0,0,0,0,0,0,0,0,0,0,0,0,0],"split_type":[0,0,0,0,0,0,0,0,0,0,0,0,0,0,0,0,0,0,0,0,0,0,0,0,0,0,0,0,0,0,0,0,0,0,0,0,0,0,0,0,0,0,0,0,0,0,0,0,0,0,0,0,0],"sum_hessian":[1.7314166E2,1.0191799E2,7.122368E1,2.7995981E1,7.3922005E1,1.6141577E1,5.50821E1,2.2029654E1,5.9663277E0,2.2052898E1,5.186911E1,8.78316E0,7.358417E0,2.959819E1,2.548391E1,2.5635242E0,1.946613E1,4.478608E0,1.4877195E0,1.9350443E1,2.7024548E0,6.894558E0,4.4974552E1,4.8884563E0,3.8947039E0,1.241424E0,6.116993E0,1.2350103E1,1.7248087E1,1.4712312E0,2.4012678E1,1.1807885E0,1.3827357E0,1.1941849E0,3.284423E0,1.2818861E1,6.531582E0,1.2095702E0,1.4928846E0,3.1813521E0,3.7132058E0,4.6219025E0,4.035265E1,2.6610038E0,2.2274525E0,4.6418457E0,1.4751472E0,8.660395E0,3.6897092E0,1.6015102E1,1.2329841E0,2.282645E1,1.186229E0],"tree_param":{"num_deleted":"0","num_feature":"8","num_nodes":"53","size_leaf_vector":"1"}},{"base_weights":[1.520884E-2,-5.5613756E-1,7.8117704E-1,-1.0288537E0,-7.65961E-2,-1.0711021E-1,1.016335E0,-1.387915E0,-6.3639975E-1,-4.176941E-2,1.8382944E-1,-4.4806862E-1,7.84535E-1,7.210335E-1,1.2690952E0,-4.256575E-2,-1.2051301E-2,-1.1178243E-1,-9.301786E-1,-3.7320685E-1,6.6486454E-1,-3.203273E-2,-1.4837581E-1,2.9043524E-2,3.966778E-3,6.8090305E-2,9.3008375E-1,2.891636E-3,1.3154508E0,-3.399E-2,8.831922E-3,-3.5311766E-2,6.7783096E-3,-2.3129689E-2,8.08459E-3,2.4401428E-2,-3.3011496E-2,1.6473373E-2,-1.8841302E-2,1.6668623E-2,-1.2242059E-2,3.0352414E-2,-3.7265061E-3,4.097574E-2,6.5232883E-3],"categories":[],"categories_nodes":[],"categories_segments":[],"categories_sizes":[],"default_left":[0,0,0,0,0,0,0,0,0,0,0,0,0,0,0,0,0,0,0,0,0,0,0,0,0,0,0,0,0,0,0,0,0,0,0,0,0,0,0,0,0,0,0,0,0],"id":14,"left_children":[1,3,5,7,9,11,13,15,17,-1,19,21,23,25,27,-1,-1,29,31,33,35,-1,37,-1,-1,39,41,-1,43,-1,-1,-1,-1,-1,-1,-1,-1,-1,-1,-1,-1,-1,-1,-1,-1],"loss_changes":[7.567733E1,2.2376938E1,1.5539581E1,6.134983E0,1.7475891E1,5.327381E0,3.4516754E0,1.9789886E-1,3.8481216E0,0E0,1.1726036E1,2.158614E0,4.576931E-1,3.9356308E0,1.5152893E0,0E0,0E0,4.6232014E0,4.918705E0,5.446108E0,7.015419E0,0E0,3.5468729E0,0E0,0E0,2.1265934E0,2.0295353E0,0E0,1.3069267E0,0E0,0E0,0E0,0E0,0E0,0E0,0E0,0E0,0E0,0E0,0E0,0E0,0E0,0E0,0E0,0E0],"parents":[2147483647,0,0,1,1,2,2,3,3,4,4,5,5,6,6,7,7,8,8,10,10,11,11,12,12,13,13,14,14,17,17,18,18,19,19,20,20,22,22,25,25,26,26,28,28],"right_children":[2,4,6,8,10,12,14,16,18,-1,20,22,24,26,28,-1,-1,30,32,34,36,-1,38,-1,-1,40,42,-1,44,-1,-1,-1,-1,-1,-1,-1,-1,-1,-1,-1,-1,-1,-1,-1,-1],"split_conditions":[1.27402565E2,2.9E1,3.021416E1,3.100226E1,2.68E1,1.5804584E2,1.574449E2,6E0,3.3982582E1,-4.176941E-2,1.0749156E2,2E0,5.1E1,3.04E-1,1.05E2,-4.256575E-2,-1.2051301E-2,9.7E1,4.23E1,4.574478E-1,9.11954E1,-3.203273E-2,4E0,2.9043524E-2,3.966778E-3,7.613077E1,2.8786725E2,2.891636E-3,1.461E0,-3.399E-2,8.831922E-3,-3.5311766E-2,6.7783096E-3,-2.3129689E-2,8.08459E-3,2.4401428E-2,-3.3011496E-2,1.6473373E-2,-1.8841302E-2,1.6668623E-2,-1.2242059E-2,3.0352414E-2,-3.7265061E-3,4.097574E-2,6.5232883E-3],"split_indices":[1,7,5,5,5,1,1,0,5,0,1,0,7,6,4,0,0,1,5,6,2,0,0,0,0,2,4,0,6,0,0,0,0,0,0,0,0,0,0,0,0,0,0,0,0],"split_type":[0,0,0,0,0,0,0,0,0,0,0,0,0,0,0,0,0,0,0,0,0,0,0,0,0,0,0,0,0,0,0,0,0,0,0,0,0,0,0,0,0,0,0,0,0],"sum_hessian":[1.7093141E2,9.8060585E1,7.287083E1,4.880487E1,4.9255714E1,1.5367197E1,5.7503628E1,2.4162117E1,2.4642752E1,7.420366E0,4.183535E1,1.1476248E1,3.8909492E0,2.8296854E1,2.9206772E1,2.3001703E1,1.1604131E0,9.341539E0,1.5301213E1,1.9490084E1,2.2345264E1,2.9055216E0,8.570726E0,2.6585903E0,1.232359E0,7.1840506E0,2.1112804E1,1.2276965E0,2.7979076E1,2.1490335E0,7.1925063E0,1.25938015E1,2.7074113E0,1.1915555E1,7.5745296E0,2.1108555E1,1.2367104E0,3.4334066E0,5.137319E0,3.4671836E0,3.716867E0,1.9632486E1,1.4803181E0,2.651776E1,1.4613154E0],"tree_param":{"num_deleted":"0","num_feature":"8","num_nodes":"45","size_leaf_vector":"1"}},{"base_weights":[8.4409565E-3,-4.8670378E-1,8.092321E-1,-9.329273E-1,-5.183577E-2,8.9778054E-1,-5.73427E-1,-1.2503123E0,-6.217627E-1,-3.7896328E-2,9.73298E-2,5.4658717E-1,1.2418615E0,-3.2585256E-2,3.4390443E-5,-1.3405372E0,-2.4533668E-1,-9.184232E-1,7.601975E-2,-7.171092E-1,3.58364E-1,-2.773959E-2,6.80243E-1,1.2851621E0,6.4110295E-3,-4.2128228E-2,-1.2474255E-2,1.9518314E-3,-1.3214708E-2,-3.1592697E-2,1.9765262E-2,3.379331E-2,-1.8859329E-2,7.570237E-3,-2.836359E-2,-2.5162092E-4,2.6155936E-2,8.329446E-3,3.162996E-2,7.555154E-3,3.9899345E-2],"categories":[],"categories_nodes":[],"categories_segments":[],"categories_sizes":[],"default_left":[0,0,0,0,0,0,0,0,0,0,0,0,0,0,0,0,0,0,0,0,0,0,0,0,0,0,0,0,0,0,0,0,0,0,0,0,0,0,0,0,0],"id":15,"left_children":[1,3,5,7,9,11,13,15,17,-1,19,21,23,-1,-1,25,27,29,31,33,35,-1,37,39,-1,-1,-1,-1,-1,-1,-1,-1,-1,-1,-1,-1,-1,-1,-1,-1,-1],"loss_changes":[6.9472084E1,2.096267E1,8.710358E0,4.4945602E0,1.02229595E1,6.9703484E0,1.3679936E0,1.9776497E0,6.0614367E0,0E0,1.1034667E1,7.1402273E0,1.113842E0,0E0,0E0,7.786598E-1,2.297455E-1,5.0239525E0,7.7830696E0,3.0361814E0,7.3629317E0,0E0,4.365672E0,1.041748E0,0E0,0E0,0E0,0E0,0E0,0E0,0E0,0E0,0E0,0E0,0E0,0E0,0E0,0E0,0E0,0E0,0E0],"parents":[2147483647,0,0,1,1,2,2,3,3,4,4,5,5,6,6,7,7,8,8,10,10,11,11,12,12,15,15,16,16,17,17,18,18,19,19,20,20,22,22,23,23],"right_children":[2,4,6,8,10,12,14,16,18,-1,20,22,24,-1,-1,26,28,30,32,34,36,-1,38,40,-1,-1,-1,-1,-1,-1,-1,-1,-1,-1,-1,-1,-1,-1,-1,-1,-1],"split_conditions":[1.2971773E2,2.9E1,6.1E1,1.04E2,8.5E1,1.574449E2,1.43E2,8.0213165E1,5.300799E-1,-3.7896328E-2,2.5283954E-1,2.287078E1,1.461E0,-3.2585256E-2,3.4390443E-5,7.820817E-1,8.5E1,9.11954E1,6.92E-1,2.7952372E1,3.006804E1,-2.773959E-2,4.34E-1,1.05E2,6.4110295E-3,-4.2128228E-2,-1.2474255E-2,1.9518314E-3,-1.3214708E-2,-3.1592697E-2,1.9765262E-2,3.379331E-2,-1.8859329E-2,7.570237E-3,-2.836359E-2,-2.5162092E-4,2.6155936E-2,8.329446E-3,3.162996E-2,7.555154E-3,3.9899345E-2],"split_indices":[1,7,7,1,4,1,1,2,6,0,6,3,6,0,0,6,4,2,6,3,3,0,6,4,0,0,0,0,0,0,0,0,0,0,0,0,0,0,0,0,0],"split_type":[0,0,0,0,0,0,0,0,0,0,0,0,0,0,0,0,0,0,0,0,0,0,0,0,0,0,0,0,0,0,0,0,0,0,0,0,0,0,0,0,0],"sum_hessian":[1.732167E2,1.0727729E2,6.593941E1,5.2382072E1,5.4895214E1,6.2300255E1,3.6391566E0,2.4437685E1,2.794439E1,5.19972E0,4.9695496E1,3.21125E1,3.0187756E1,1.4525241E0,2.1866324E0,2.2118065E1,2.3196194E0,1.9386194E1,8.558194E0,1.1637806E1,3.805769E1,2.1814666E0,2.9931032E1,2.8727926E1,1.4598291E0,2.0206734E1,1.9113318E0,1.1527506E0,1.1668688E0,1.8167397E1,1.2187991E0,3.1957784E0,5.3624163E0,2.1985607E0,9.439245E0,2.2775024E1,1.5282665E1,1.525538E1,1.46756525E1,1.4693177E0,2.7258608E1],"tree_param":{"num_deleted":"0","num_feature":"8","num_nodes":"41","size_leaf_vector":"1"}},{"base_weights":[-1.4070921E-2,-5.120444E-1,7.703419E-1,-9.438155E-1,-1.0001359E-1,-1.2056682E-1,1.0301334E0,-1.0260656E0,2.5538923E-2,-4.101663E-2,1.2997587E-1,-2.8496753E-2,1.8827431E-1,6.736388E-1,1.3043383E0,-1.2157025E0,-4.7844133E-1,-3.587979E-2,2.9327378E-1,4.123635E-1,-3.0026214E-2,8.8111925E-1,1.476513E-1,3.9939843E-2,1.0941838E-2,-2.1473592E-2,-4.1617695E-2,-3.9170273E-2,-2.2159128E-3,-3.0729378E-2,1.1188758E-2,1.8573027E-2,-2.0342771E-2,3.916335E-2,1.2238172E-2,-2.4233012E-2,1.7747184E-2],"categories":[],"categories_nodes":[],"categories_segments":[],"categories_sizes":[],"default_left":[0,0,0,0,0,0,0,0,0,0,0,0,0,0,0,0,0,0,0,0,0,0,0,0,0,0,0,0,0,0,0,0,0,0,0,0,0],"id":16,"left_children":[1,3,5,7,9,11,13,15,-1,-1,17,-1,19,21,23,25,27,-1,29,31,-1,33,35,-1,-1,-1,-1,-1,-1,-1,-1,-1,-1,-1,-1,-1,-1],"loss_changes":[6.552837E1,1.8157831E1,1.5203175E1,8.25288E0,1.5804037E1,4.175486E0,4.06234E0,4.428425E0,0E0,0E0,1.037465E1,0E0,3.6649036E0,2.4938278E0,2.1188354E-1,2.0246086E0,4.608503E0,0E0,4.7938533E0,2.894545E0,0E0,2.888979E0,3.872025E0,0E0,0E0,0E0,0E0,0E0,0E0,0E0,0E0,0E0,0E0,0E0,0E0,0E0,0E0],"parents":[2147483647,0,0,1,1,2,2,3,3,4,4,5,5,6,6,7,7,10,10,12,12,13,13,14,14,15,15,16,16,18,18,19,19,21,21,22,22],"right_children":[2,4,6,8,10,12,14,16,-1,-1,18,-1,20,22,24,26,28,-1,30,32,-1,34,36,-1,-1,-1,-1,-1,-1,-1,-1,-1,-1,-1,-1,-1,-1],"split_conditions":[1.2971773E2,2.9E1,3.021416E1,4.54E1,2.68E1,2E0,1.574449E2,1.14039764E2,2.5538923E-2,-4.101663E-2,8.6E1,-2.8496753E-2,6.1E1,1.47E2,4.56E1,7.5E1,1.5446497E2,-3.587979E-2,8.4E1,8.792043E1,-3.0026214E-2,7.355539E1,7.403375E1,3.9939843E-2,1.0941838E-2,-2.1473592E-2,-4.1617695E-2,-3.9170273E-2,-2.2159128E-3,-3.0729378E-2,1.1188758E-2,1.8573027E-2,-2.0342771E-2,3.916335E-2,1.2238172E-2,-2.4233012E-2,1.7747184E-2],"split_indices":[1,7,5,5,5,0,1,1,0,0,4,0,7,1,5,4,4,0,1,2,0,2,2,0,0,0,0,0,0,0,0,0,0,0,0,0,0],"split_type":[0,0,0,0,0,0,0,0,0,0,0,0,0,0,0,0,0,0,0,0,0,0,0,0,0,0,0,0,0,0,0,0,0,0,0,0,0],"sum_hessian":[1.6574635E2,1.0159647E2,6.414988E1,4.8979614E1,5.2616856E1,1.4603995E1,4.9545883E1,4.724339E1,1.7362268E0,7.323079E0,4.5293777E1,3.39956E0,1.1204435E1,2.3043573E1,2.650231E1,3.4185368E1,1.305802E1,4.273031E0,4.102075E1,9.97746E0,1.2269759E0,1.6040918E1,7.0026546E0,2.5357048E1,1.1452613E0,1.0055511E1,2.4129858E1,3.5572667E0,9.500753E0,1.6633155E0,3.935743E1,8.750689E0,1.2267714E0,7.5297327E0,8.511186E0,1.9614844E0,5.04117E0],"tree_param":{"num_deleted":"0","num_feature":"8","num_nodes":"37","size_leaf_vector":"1"}},{"base_weights":[-1.1222603E-3,-4.7895595E-1,6.565911E-1,-1.2636927E0,-2.0105885E-1,-2.5060746E-1,9.134324E-1,-4.138384E-2,-6.7777556E-1,-1.1005667E0,2.6125884E-2,-6.5937173E-1,2.6058522E-1,6.1983734E-1,1.2300426E0,-2.6904806E-1,-3.175293E-2,-3.88461E-2,3.8287062E-3,-8.800352E-1,1.7052615E-1,-1.0031108E0,1.4696117E-1,-1.7206307E-1,3.259163E-2,7.662448E-1,-3.0614418E-1,1.2877536E0,9.3533646E-4,-1.5920782E-2,6.57107E-3,-3.3259653E-2,8.031314E-3,-2.875747E-2,8.394942E-3,-1.1312208E-2,-3.8072355E-2,2.2072176E-2,-1.7287245E-2,1.7128713E-2,-1.4146182E-2,8.67149E-3,3.1974047E-2,-2.9894907E-2,1.4799229E-2,1.8102003E-3,4.0470757E-2],"categories":[],"categories_nodes":[],"categories_segments":[],"categories_sizes":[],"default_left":[0,0,0,0,0,0,0,0,0,0,0,0,0,0,0,0,0,0,0,0,0,0,0,0,0,0,0,0,0,0,0,0,0,0,0,0,0,0,0,0,0,0,0,0,0,0,0],"id":17,"left_children":[1,3,5,7,9,11,13,-1,15,17,19,21,23,25,27,29,-1,-1,-1,31,33,35,37,39,-1,41,43,45,-1,-1,-1,-1,-1,-1,-1,-1,-1,-1,-1,-1,-1,-1,-1,-1,-1,-1,-1],"loss_changes":[5.3245316E1,2.1145323E1,1.6840504E1,7.928848E-1,1.5080511E1,3.6227837E0,4.422367E0,0E0,6.749723E-1,3.7150269E0,7.9723063E0,2.769494E0,3.0648036E0,4.4313536E0,1.7463493E0,6.673443E-1,0E0,0E0,0E0,2.4954643E0,6.7354527E0,6.471257E-1,1.999333E0,1.6374756E0,0E0,3.5537186E0,3.2184389E0,1.7694321E0,0E0,0E0,0E0,0E0,0E0,0E0,0E0,0E0,0E0,0E0,0E0,0E0,0E0,0E0,0E0,0E0,0E0,0E0,0E0],"parents":[2147483647,0,0,1,1,2,2,3,3,4,4,5,5,6,6,8,8,9,9,10,10,11,11,12,12,13,13,14,14,15,15,19,19,20,20,21,21,22,22,23,23,25,25,26,26,27,27],"right_children":[2,4,6,8,10,12,14,-1,16,18,20,22,24,26,28,30,-1,-1,-1,32,34,36,38,40,-1,42,44,46,-1,-1,-1,-1,-1,-1,-1,-1,-1,-1,-1,-1,-1,-1,-1,-1,-1,-1,-1],"split_conditions":[1.27402565E2,2.79E1,3E1,2.7E1,9.3E1,1.46E2,1.5804584E2,-4.138384E-2,2.77E1,7.820817E-1,6.0097263E1,2.83E1,7E0,2.58E2,1.461E0,1.09E2,-3.175293E-2,-3.88461E-2,3.8287062E-3,6.27E-1,1.58E-1,7.205432E1,1.35E2,2.126516E1,3.259163E-2,4.22E-1,5E0,1.05E2,9.3533646E-4,-1.5920782E-2,6.57107E-3,-3.3259653E-2,8.031314E-3,-2.875747E-2,8.394942E-3,-1.1312208E-2,-3.8072355E-2,2.2072176E-2,-1.7287245E-2,1.7128713E-2,-1.4146182E-2,8.67149E-3,3.1974047E-2,-2.9894907E-2,1.4799229E-2,1.8102003E-3,4.0470757E-2],"split_indices":[1,5,5,5,1,1,1,0,5,6,2,5,0,4,6,1,0,0,0,6,6,2,1,3,0,6,0,4,0,0,0,0,0,0,0,0,0,0,0,0,0,0,0,0,0,0,0],"split_type":[0,0,0,0,0,0,0,0,0,0,0,0,0,0,0,0,0,0,0,0,0,0,0,0,0,0,0,0,0,0,0,0,0,0,0,0,0,0,0,0,0,0,0,0,0,0,0],"sum_hessian":[1.6742064E2,9.712813E1,7.029252E1,2.4472988E1,7.2655136E1,1.5515152E1,5.477737E1,1.9304367E1,5.1686215E0,1.38749075E1,5.878023E1,8.460237E0,7.054916E0,2.9956345E1,2.4821024E1,3.31546E0,1.8531617E0,1.193281E1,1.9420972E0,7.379146E0,5.1401085E1,5.7605E0,2.6997364E0,5.148955E0,1.9059609E0,2.601552E1,3.9408236E0,2.3610325E1,1.2106987E0,2.1015785E0,1.2138814E0,6.1818414E0,1.1973046E0,3.8510008E0,4.7550083E1,2.438494E0,3.3220057E0,1.4786193E0,1.2211171E0,1.218718E0,3.930237E0,1.0790746E1,1.5224775E1,1.9824436E0,1.9583801E0,1.2169428E0,2.2393383E1],"tree_param":{"num_deleted":"0","num_feature":"8","num_nodes":"47","size_leaf_vector":"1"}},{"base_weights":[1.32404305E-2,-4.3979883E-1,8.4076947E-1,-1.0607498E0,-1.2104467E-1,3.9617968E-1,1.1468401E0,-1.1634399E0,2.8694484E-1,-4.1142857E-1,4.3562004E-1,-4.7436652E-1,6.148382E-1,1.1883512E0,-1.3134744E-3,-1.2203465E0,2.6800323E-3,2.080875E-2,-7.4597793E-3,-7.9821485E-1,1.5878567E-2,1.0696734E0,-1.1109938E-2,-6.408111E-2,-3.3406585E-2,4.0810958E-2,2.3523435E-1,1.2303205E0,3.4499343E-3,7.496197E-4,-3.7969824E-2,-3.6648914E-2,-4.66798E-3,2.9483335E-2,-7.343913E-3,9.430614E-3,3.667176E-2,-1.747006E-2,1.676249E-2,8.860827E-3,-1.7557455E-2,-3.0074408E-2,2.0987585E-2,3.8140815E-2,2.013E-3],"categories":[],"categories_nodes":[],"categories_segments":[],"categories_sizes":[],"default_left":[0,0,0,0,0,0,0,0,0,0,0,0,0,0,0,0,0,0,0,0,0,0,0,0,0,0,0,0,0,0,0,0,0,0,0,0,0,0,0,0,0,0,0,0,0],"id":18,"left_children":[1,3,5,7,9,11,13,15,17,19,21,23,25,27,-1,29,-1,-1,-1,31,33,35,37,39,-1,-1,41,43,-1,-1,-1,-1,-1,-1,-1,-1,-1,-1,-1,-1,-1,-1,-1,-1,-1],"loss_changes":[6.467588E1,2.1941055E1,7.849861E0,5.550373E0,1.2271658E1,5.318932E0,1.8123093E0,2.6200447E0,9.285072E-1,8.223058E0,7.4135756E0,1.467094E0,5.777047E0,1.4104881E0,0E0,1.9367523E0,0E0,0E0,0E0,6.909958E0,6.436532E0,8.6284065E-1,5.637807E0,1.0409461E0,0E0,0E0,9.600752E0,1.4925461E0,0E0,0E0,0E0,0E0,0E0,0E0,0E0,0E0,0E0,0E0,0E0,0E0,0E0,0E0,0E0,0E0,0E0],"parents":[2147483647,0,0,1,1,2,2,3,3,4,4,5,5,6,6,7,7,8,8,9,9,10,10,11,11,12,12,13,13,15,15,19,19,20,20,21,21,22,22,23,23,26,26,27,27],"right_children":[2,4,6,8,10,12,14,16,18,20,22,24,26,28,-1,30,-1,-1,-1,32,34,36,38,40,-1,-1,42,44,-1,-1,-1,-1,-1,-1,-1,-1,-1,-1,-1,-1,-1,-1,-1,-1,-1],"split_conditions":[1.3324814E2,1.00446915E2,1.5489636E2,1.5559213E2,5.300799E-1,6.618401E1,5.43E2,5.1E1,1.82E2,3E1,6.92E-1,1.4483594E2,7.355539E1,9.4E1,-1.3134744E-3,5E1,2.6800323E-3,2.080875E-2,-7.4597793E-3,2.917312E1,2E0,2.6344297E1,2.917312E1,4E0,-3.3406585E-2,4.0810958E-2,2E0,6.2E1,3.4499343E-3,7.496197E-4,-3.7969824E-2,-3.6648914E-2,-4.66798E-3,2.9483335E-2,-7.343913E-3,9.430614E-3,3.667176E-2,-1.747006E-2,1.676249E-2,8.860827E-3,-1.7557455E-2,-3.0074408E-2,2.0987585E-2,3.8140815E-2,2.013E-3],"split_indices":[1,1,1,4,6,2,4,7,4,7,6,1,2,2,0,2,0,0,0,3,0,3,3,0,0,0,0,7,0,0,0,0,0,0,0,0,0,0,0,0,0,0,0,0,0],"split_type":[0,0,0,0,0,0,0,0,0,0,0,0,0,0,0,0,0,0,0,0,0,0,0,0,0,0,0,0,0,0,0,0,0,0,0,0,0,0,0,0,0,0,0,0,0],"sum_hessian":[1.7052727E2,1.1050093E2,6.0026333E1,3.6693043E1,7.380789E1,2.5410358E1,3.4615974E1,3.422214E1,2.4709036E0,4.8676643E1,2.5131247E1,4.8663793E0,2.054398E1,3.3451595E1,1.164381E0,3.2759922E1,1.4622161E0,1.2367873E0,1.2341163E0,2.5094135E1,2.358251E1,9.811344E0,1.5319902E1,3.63401E0,1.2323691E0,6.059572E0,1.4484407E1,3.2052082E1,1.3995099E0,1.1659437E0,3.159398E1,1.4583876E1,1.0510259E1,4.4195137E0,1.9162996E1,2.1644995E0,7.646845E0,7.639849E0,7.6800528E0,2.4071217E0,1.2268883E0,3.635424E0,1.0848984E1,3.0869982E1,1.1821023E0],"tree_param":{"num_deleted":"0","num_feature":"8","num_nodes":"45","size_leaf_vector":"1"}},{"base_weights":[-2.7417224E-2,-4.476329E-1,7.3633283E-1,-3.7765518E-2,-1.6309482E-1,-2.8402092E-2,9.4415104E-1,-8.7214446E-1,1.0195519E-1,1.8477626E-1,-3.1901337E-2,5.7923406E-1,1.1593665E0,-1.0496005E0,3.8782394E-1,-3.6691344E-1,5.7861155E-1,-2.6043427E-1,8.096369E-1,7.121336E-2,9.0534246E-1,2.887902E-1,1.2335811E0,-3.5138484E-2,-4.1259113E-3,-1.4253997E-2,3.184804E-2,-2.6068201E-2,-3.2829696E-3,-9.2113856E-4,2.6135402E-2,3.1096464E-2,-1.9816753E-2,3.072972E-2,1.4196679E-3,-1.5319503E-2,1.5312958E-2,3.901171E-2,-1.6555586E-3,-1.4819334E-2,2.6634209E-2,3.868678E-2,5.164565E-3],"categories":[],"categories_nodes":[],"categories_segments":[],"categories_sizes":[],"default_left":[0,0,0,0,0,0,0,0,0,0,0,0,0,0,0,0,0,0,0,0,0,0,0,0,0,0,0,0,0,0,0,0,0,0,0,0,0,0,0,0,0,0,0],"id":19,"left_children":[1,3,5,-1,7,9,11,13,15,17,-1,19,21,23,25,27,29,31,33,35,37,39,41,-1,-1,-1,-1,-1,-1,-1,-1,-1,-1,-1,-1,-1,-1,-1,-1,-1,-1,-1,-1],"loss_changes":[5.332187E1,2.452373E1,9.400476E0,0E0,1.5210707E1,3.1914058E0,2.9730835E0,5.325697E0,1.3502061E1,3.5791507E0,0E0,3.118781E0,1.4652748E0,2.0089054E0,2.5080533E0,3.8589525E0,5.3525763E0,4.746464E0,8.1578946E-1,2.4578469E0,4.479904E0,2.0891705E0,1.3033905E0,0E0,0E0,0E0,0E0,0E0,0E0,0E0,0E0,0E0,0E0,0E0,0E0,0E0,0E0,0E0,0E0,0E0,0E0,0E0,0E0],"parents":[2147483647,0,0,1,1,2,2,4,4,5,5,6,6,7,7,8,8,9,9,11,11,12,12,13,13,14,14,15,15,16,16,17,17,18,18,19,19,20,20,21,21,22,22],"right_children":[2,4,6,-1,8,10,12,14,16,18,-1,20,22,24,26,28,30,32,34,36,38,40,42,-1,-1,-1,-1,-1,-1,-1,-1,-1,-1,-1,-1,-1,-1,-1,-1,-1,-1,-1,-1],"split_conditions":[1.3324814E2,2.79E1,3.021416E1,-3.7765518E-2,1E2,6.1E1,1.56E2,7.820817E-1,3.1E1,1.52E2,-3.1901337E-2,4.22E-1,2.6344297E1,4.3E1,7.7E1,2.9101166E1,3.25E-1,1.35E2,7.838809E1,3.4925396E1,8.021565E1,3.4055046E1,1.461E0,-3.5138484E-2,-4.1259113E-3,-1.4253997E-2,3.184804E-2,-2.6068201E-2,-3.2829696E-3,-9.2113856E-4,2.6135402E-2,3.1096464E-2,-1.9816753E-2,3.072972E-2,1.4196679E-3,-1.5319503E-2,1.5312958E-2,3.901171E-2,-1.6555586E-3,-1.4819334E-2,2.6634209E-2,3.868678E-2,5.164565E-3],"split_indices":[1,5,5,0,1,7,1,6,7,1,0,6,3,7,4,3,6,1,2,5,2,5,6,0,0,0,0,0,0,0,0,0,0,0,0,0,0,0,0,0,0,0,0],"split_type":[0,0,0,0,0,0,0,0,0,0,0,0,0,0,0,0,0,0,0,0,0,0,0,0,0,0,0,0,0,0,0,0,0,0,0,0,0,0,0,0,0,0,0],"sum_hessian":[1.6411592E2,1.0613454E2,5.7981377E1,2.6671093E1,7.946345E1,1.25741205E1,4.5407257E1,2.0998564E1,5.846488E1,1.1107691E1,1.46643E0,1.8214447E1,2.7192808E1,1.8552553E1,2.44601E0,2.9589277E1,2.8875605E1,6.826822E0,4.280869E0,7.5973926E0,1.0617055E1,2.5202487E0,2.467256E1,1.6117998E1,2.4345558E0,1.2017107E0,1.2442994E0,9.226004E0,2.0363274E1,9.657506E0,1.92181E1,1.2345428E0,5.592279E0,3.0720105E0,1.2088586E0,3.1980631E0,4.3993297E0,7.272271E0,3.3447838E0,1.1685685E0,1.3516803E0,2.3232386E1,1.4401736E0],"tree_param":{"num_deleted":"0","num_feature":"8","num_nodes":"43","size_leaf_vector":"1"}},{"base_weights":[1.7845558E-2,-4.776396E-1,6.716128E-1,-1.0282345E0,-1.9144337E-1,-2.086429E-1,9.1622275E-1,-1.1318259E0,1.2056867E-2,-1.0746924E0,-1.1442187E-2,-7.414629E-1,4.058594E-1,-1.0884221E-2,9.5026284E-1,-1.3294147E0,-5.959694E-1,1.5975669E-2,-3.953128E-2,-2.1097612E-1,7.865569E-1,-9.766075E-1,-1.11094415E-1,7.000679E-3,3.275432E-2,7.025411E-1,1.1747204E0,-4.0797267E-2,-1.2564507E-2,9.040934E-3,-2.4937935E-2,-3.5421655E-2,-2.4461842E-3,9.975058E-3,3.964378E-2,-1.2722679E-2,-3.6948036E-2,-2.7703356E-2,1.9767607E-2,2.7363464E-2,-1.1348692E-2,2.7005346E-2,-4.5933523E-3,3.667263E-2,5.0761616E-3],"categories":[],"categories_nodes":[],"categories_segments":[],"categories_sizes":[],"default_left":[0,0,0,0,0,0,0,0,0,0,0,0,0,0,0,0,0,0,0,0,0,0,0,0,0,0,0,0,0,0,0,0,0,0,0,0,0,0,0,0,0,0,0,0,0],"id":20,"left_children":[1,3,5,7,9,11,13,15,-1,17,19,21,23,-1,25,27,29,-1,-1,31,33,35,37,39,-1,41,43,-1,-1,-1,-1,-1,-1,-1,-1,-1,-1,-1,-1,-1,-1,-1,-1,-1,-1],"loss_changes":[5.5372437E1,1.5129463E1,1.6057297E1,5.349167E0,1.0357612E1,5.8140707E0,2.8633842E0,2.4970665E0,0E0,5.0103807E0,8.954352E0,1.2807274E0,2.3086221E0,0E0,2.3232346E0,3.8143158E-2,2.4003117E0,0E0,0E0,5.5448866E0,2.2933922E0,4.213071E-1,2.9070349E0,2.562868E0,0E0,5.1105433E0,1.1466713E0,0E0,0E0,0E0,0E0,0E0,0E0,0E0,0E0,0E0,0E0,0E0,0E0,0E0,0E0,0E0,0E0,0E0,0E0],"parents":[2147483647,0,0,1,1,2,2,3,3,4,4,5,5,6,6,7,7,9,9,10,10,11,11,12,12,14,14,15,15,16,16,19,19,20,20,21,21,22,22,23,23,25,25,26,26],"right_children":[2,4,6,8,10,12,14,16,-1,18,20,22,24,-1,26,28,30,-1,-1,32,34,36,38,40,-1,42,44,-1,-1,-1,-1,-1,-1,-1,-1,-1,-1,-1,-1,-1,-1,-1,-1,-1,-1],"split_conditions":[1.27402565E2,1E2,3E1,1.5559213E2,2.66E1,1.46E2,1.8178501E1,3.4055046E1,1.2056867E-2,5E1,7E0,2.83E1,7E0,-1.0884221E-2,1.574449E2,1.101E0,2.7880014E1,1.5975669E-2,-3.953128E-2,5.8289562E1,3.83E-1,2.59E1,6.434544E1,1.9938822E1,3.275432E-2,2E2,1.461E0,-4.0797267E-2,-1.2564507E-2,9.040934E-3,-2.4937935E-2,-3.5421655E-2,-2.4461842E-3,9.975058E-3,3.964378E-2,-1.2722679E-2,-3.6948036E-2,-2.7703356E-2,1.9767607E-2,2.7363464E-2,-1.1348692E-2,2.7005346E-2,-4.5933523E-3,3.667263E-2,5.0761616E-3],"split_indices":[1,1,5,4,5,1,3,5,0,4,0,5,0,0,1,6,3,0,0,2,6,5,2,3,0,4,6,0,0,0,0,0,0,0,0,0,0,0,0,0,0,0,0,0,0],"split_type":[0,0,0,0,0,0,0,0,0,0,0,0,0,0,0,0,0,0,0,0,0,0,0,0,0,0,0,0,0,0,0,0,0,0,0,0,0,0,0,0,0,0,0,0,0],"sum_hessian":[1.6894818E2,9.6261635E1,7.268655E1,3.203628E1,6.422535E1,1.5838177E1,5.684837E1,3.0066969E1,1.9693133E0,1.0031456E1,5.4193897E1,8.372221E0,7.4659557E0,1.2233585E0,5.562501E1,2.0885021E1,9.181947E0,1.1611022E0,8.870354E0,4.3942104E1,1.0251789E1,5.6975975E0,2.6746235E0,5.3596797E0,2.1062765E0,2.8405424E1,2.7219585E1,1.9730848E1,1.1541737E0,1.849147E0,7.3328E0,4.2180743E0,3.9724033E1,6.4220276E0,3.8297617E0,2.640128E0,3.0574696E0,1.2045692E0,1.4700544E0,1.1920348E0,4.1676445E0,2.3033216E1,5.372208E0,2.5780851E1,1.4387343E0],"tree_param":{"num_deleted":"0","num_feature":"8","num_nodes":"45","size_leaf_vector":"1"}},{"base_weights":[-2.2497572E-2,-4.2334324E-1,7.326744E-1,-1.1462972E0,-1.6520888E-1,8.2794654E-1,-8.352293E-1,-1.2346936E0,-5.868699E-1,-1.1160111E0,5.3317074E-2,2.1759439E-1,9.90258E-1,-3.420436E-2,-1.9027968E-3,-3.96005E-2,-7.2573835E-1,-3.314663E-2,8.480056E-3,-1.2948599E0,-2.857908E-1,-4.7345155E-1,4.131198E-1,5.2182174E-1,-2.3610253E-2,1.0690542E0,2.887984E-1,1.1152837E-2,-3.4750387E-2,-4.0734116E-2,-1.0674001E-2,-1.8479846E-2,5.855618E-3,-1.7446311E-2,3.109266E-2,-3.3460934E-2,1.5240674E-2,-1.2753087E-2,2.2428125E-2,1.47778625E-2,3.5048217E-2,2.6195293E-2,-1.7798822E-2],"categories":[],"categories_nodes":[],"categories_segments":[],"categories_sizes":[],"default_left":[0,0,0,0,0,0,0,0,0,0,0,0,0,0,0,0,0,0,0,0,0,0,0,0,0,0,0,0,0,0,0,0,0,0,0,0,0,0,0,0,0,0,0],"id":21,"left_children":[1,3,5,7,9,11,13,15,17,19,21,23,25,-1,-1,-1,27,-1,-1,29,31,33,35,37,-1,39,41,-1,-1,-1,-1,-1,-1,-1,-1,-1,-1,-1,-1,-1,-1,-1,-1],"loss_changes":[5.1121326E1,2.039211E1,9.440517E0,7.020149E-1,1.7187847E1,5.304226E0,8.344004E-1,8.451843E-2,2.9439445E0,1.9242516E0,1.3081065E1,4.379527E0,2.1083717E0,0E0,0E0,0E0,3.1216884E0,0E0,0E0,2.5159073E-1,7.589925E-1,5.1817684E0,6.50361E0,2.5773926E0,0E0,1.6519852E0,3.5008054E0,0E0,0E0,0E0,0E0,0E0,0E0,0E0,0E0,0E0,0E0,0E0,0E0,0E0,0E0,0E0,0E0],"parents":[2147483647,0,0,1,1,2,2,3,3,4,4,5,5,6,6,7,7,8,8,9,9,10,10,11,11,12,12,16,16,19,19,20,20,21,21,22,22,23,23,25,25,26,26],"right_children":[2,4,6,8,10,12,14,16,18,20,22,24,26,-1,-1,-1,28,-1,-1,30,32,34,36,38,-1,40,42,-1,-1,-1,-1,-1,-1,-1,-1,-1,-1,-1,-1,-1,-1,-1,-1],"split_conditions":[1.3324814E2,2.79E1,6.1E1,4E1,9.4E1,3.021416E1,7.838809E1,6.5344775E-1,2.7E1,6.6E-1,2.9E1,6.375844E-1,1.072E0,-3.420436E-2,-1.9027968E-3,-3.96005E-2,6.8E-1,-3.314663E-2,8.480056E-3,1E1,8.6E1,4.54E1,1.58E-1,2E0,-2.3610253E-2,2.703303E1,4.015446E1,1.1152837E-2,-3.4750387E-2,-4.0734116E-2,-1.0674001E-2,-1.8479846E-2,5.855618E-3,-1.7446311E-2,3.109266E-2,-3.3460934E-2,1.5240674E-2,-1.2753087E-2,2.2428125E-2,1.47778625E-2,3.5048217E-2,2.6195293E-2,-1.7798822E-2],"split_indices":[1,5,7,7,1,5,2,6,5,6,7,6,6,0,0,0,6,0,0,0,1,5,6,0,0,3,5,0,0,0,0,0,0,0,0,0,0,0,0,0,0,0,0],"split_type":[0,0,0,0,0,0,0,0,0,0,0,0,0,0,0,0,0,0,0,0,0,0,0,0,0,0,0,0,0,0,0,0,0,0,0,0,0,0,0,0,0,0,0],"sum_hessian":[1.6685565E2,1.09285995E2,5.7569653E1,2.784898E1,8.143701E1,5.471678E1,2.8528721E0,2.3006584E1,4.842396E0,1.445156E1,6.698545E1,1.1985894E1,4.273089E1,1.7028697E0,1.1500024E0,1.8338652E1,4.6679316E0,2.8649647E0,1.9774309E0,1.1429683E1,3.021877E0,2.705693E1,3.9928524E1,9.568731E0,2.4171631E0,3.7944473E1,4.786414E0,1.3595325E0,3.308399E0,1.0293783E1,1.1358994E0,1.6253313E0,1.3965456E0,2.582309E1,1.2338406E0,1.7056091E0,3.8222916E1,1.6723112E0,7.89642E0,6.447825E0,3.1496649E1,2.885142E0,1.9012722E0],"tree_param":{"num_deleted":"0","num_feature":"8","num_nodes":"43","size_leaf_vector":"1"}},{"base_weights":[-4.51805E-2,-8.3154637E-1,2.7504918E-1,-1.0017344E0,-2.1034278E-1,-4.2021203E-1,4.6431103E-1,-1.0815825E0,1.6658877E-1,4.449805E-1,-9.152501E-1,-1.122926E0,-7.263321E-2,-8.20785E-1,5.547535E-1,-4.0130235E-2,-8.156618E-1,-1.1881715E-2,1.8676339E-2,-1.4383647E-2,8.4009826E-1,-3.0317886E-3,-3.304654E-2,-4.0209692E-2,-3.7628624E-3,-3.3040062E-1,4.2646298E-1,-3.837998E-2,2.4569733E-3,2.0122203E-1,7.177944E-1,-1.4235297E-3,-3.0236585E-2,4.399662E-3,3.0272888E-2,2.3548042E-3,-2.8143268E-2,2.973792E-2,-8.081968E-3,1.0455747E-2,-2.016661E-2,1.180119E-2,2.6800929E-2],"categories":[],"categories_nodes":[],"categories_segments":[],"categories_sizes":[],"default_left":[0,0,0,0,0,0,0,0,0,0,0,0,0,0,0,0,0,0,0,0,0,0,0,0,0,0,0,0,0,0,0,0,0,0,0,0,0,0,0,0,0,0,0],"id":22,"left_children":[1,3,5,7,9,11,13,15,17,19,21,23,25,27,29,-1,31,-1,-1,-1,33,-1,-1,-1,-1,35,37,-1,-1,39,41,-1,-1,-1,-1,-1,-1,-1,-1,-1,-1,-1,-1],"loss_changes":[4.1758667E1,4.8611374E0,1.5715326E1,3.6683578E0,5.757712E0,6.210791E0,1.1285944E1,1.3014526E0,1.0825132E0,2.8409848E0,7.847214E-1,1.6656876E0,2.495941E0,2.8078032E0,4.907982E0,0E0,2.8757448E0,0E0,0E0,0E0,4.4262505E-1,0E0,0E0,0E0,0E0,3.213214E0,2.8888884E0,0E0,0E0,3.9725356E0,3.0432777E0,0E0,0E0,0E0,0E0,0E0,0E0,0E0,0E0,0E0,0E0,0E0,0E0],"parents":[2147483647,0,0,1,1,2,2,3,3,4,4,5,5,6,6,7,7,8,8,9,9,10,10,11,11,12,12,13,13,14,14,16,16,20,20,25,25,26,26,29,29,30,30],"right_children":[2,4,6,8,10,12,14,16,18,20,22,24,26,28,30,-1,32,-1,-1,-1,34,-1,-1,-1,-1,36,38,-1,-1,40,42,-1,-1,-1,-1,-1,-1,-1,-1,-1,-1,-1,-1],"split_conditions":[2.99E1,4.1E1,2.5E1,8E0,5.6E1,2.808264E1,8.5E1,3.1713372E-1,2.6E1,1.98E-1,4E0,8.0213165E1,5.210856E-1,5.0128466E-1,3.07E-1,-4.0130235E-2,4.022817E-1,-1.1881715E-2,1.8676339E-2,-1.4383647E-2,2.71E1,-3.0317886E-3,-3.304654E-2,-4.0209692E-2,-3.7628624E-3,3.74E-1,6.985351E-1,-3.837998E-2,2.4569733E-3,2.79E-1,7.205432E1,-1.4235297E-3,-3.0236585E-2,4.399662E-3,3.0272888E-2,2.3548042E-3,-2.8143268E-2,2.973792E-2,-8.081968E-3,1.0455747E-2,-2.016661E-2,1.180119E-2,2.6800929E-2],"split_indices":[5,7,7,0,7,3,4,6,5,6,0,2,6,6,6,0,6,0,0,0,5,0,0,0,0,6,6,0,0,6,2,0,0,0,0,0,0,0,0,0,0,0,0],"split_type":[0,0,0,0,0,0,0,0,0,0,0,0,0,0,0,0,0,0,0,0,0,0,0,0,0,0,0,0,0,0,0,0,0,0,0,0,0,0,0,0,0,0,0],"sum_hessian":[1.6392068E2,4.6973755E1,1.1694693E2,3.6391262E1,1.0582496E1,2.4762094E1,9.218483E1,3.413273E1,2.258534E0,5.675218E0,4.907277E0,7.456428E0,1.7305666E1,5.5302544E0,8.665458E1,1.5334582E1,1.8798145E1,1.0697905E0,1.1887434E0,1.6354342E0,4.039784E0,1.2010026E0,3.7062747E0,5.839965E0,1.6164632E0,1.1634709E1,5.6709576E0,3.3906233E0,2.1396308E0,2.8055134E1,5.8599445E1,4.0118656E0,1.4786279E1,1.1576084E0,2.8821754E0,7.475611E0,4.1590977E0,2.8959377E0,2.77502E0,2.4520771E1,3.534363E0,2.171486E1,3.6884583E1],"tree_param":{"num_deleted":"0","num_feature":"8","num_nodes":"43","size_leaf_vector":"1"}},{"base_weights":[-4.3640006E-2,-3.034196E-1,1.044257E0,-9.973978E-1,-7.415594E-2,1.0891734E0,-2.7947943E-3,-1.0993328E0,1.2168059E-2,-8.6965615E-1,1.2482464E-1,3.6427075E-1,1.1782494E0,-1.1611923E0,3.0623004E-3,2.0595007E-2,-1.0188487E0,-7.9740065E-1,2.3861127E-1,1.646375E-2,3.135966E-4,1.2878534E0,6.928884E-1,2.2558502E-3,-3.6391005E-2,-3.5128597E-2,-1.4583357E-2,-3.7188135E-2,-4.736054E-4,-6.143901E-3,1.4461495E-2,8.910439E-3,3.979433E-2,2.641249E-2,-5.651607E-3],"categories":[],"categories_nodes":[],"categories_segments":[],"categories_sizes":[],"default_left":[0,0,0,0,0,0,0,0,0,0,0,0,0,0,0,0,0,0,0,0,0,0,0,0,0,0,0,0,0,0,0,0,0,0,0],"id":23,"left_children":[1,3,5,7,9,11,-1,13,-1,15,17,19,21,23,-1,-1,25,27,29,-1,-1,31,33,-1,-1,-1,-1,-1,-1,-1,-1,-1,-1,-1,-1],"loss_changes":[4.6776318E1,2.116303E1,1.7318916E0,5.174782E0,1.6161123E1,1.5583038E0,0E0,2.4295082E0,0E0,5.4395294E0,8.794701E0,3.0867493E-1,5.420799E-1,1.9918938E0,0E0,0E0,9.7307205E-1,3.1727214E0,8.060589E0,0E0,0E0,4.0327835E-1,1.3445041E0,0E0,0E0,0E0,0E0,0E0,0E0,0E0,0E0,0E0,0E0,0E0,0E0],"parents":[2147483647,0,0,1,1,2,2,3,3,4,4,5,5,7,7,9,9,10,10,11,11,12,12,13,13,16,16,17,17,18,18,21,21,22,22],"right_children":[2,4,6,8,10,12,-1,14,-1,16,18,20,22,24,-1,-1,26,28,30,-1,-1,32,34,-1,-1,-1,-1,-1,-1,-1,-1,-1,-1,-1,-1],"split_conditions":[1.5489636E2,1E2,5.43E2,1.5559213E2,2.79E1,2.86E1,-2.7947943E-3,5.1E1,1.2168059E-2,5E1,6.0097263E1,2.56E1,4.5E1,5E1,3.0623004E-3,2.0595007E-2,2.7E1,3.2067844E1,3.07E-1,1.646375E-2,3.135966E-4,1.62E-1,3.757991E1,2.2558502E-3,-3.6391005E-2,-3.5128597E-2,-1.4583357E-2,-3.7188135E-2,-4.736054E-4,-6.143901E-3,1.4461495E-2,8.910439E-3,3.979433E-2,2.641249E-2,-5.651607E-3],"split_indices":[1,1,4,4,5,5,0,7,0,4,2,5,7,2,0,0,5,3,6,0,0,6,5,0,0,0,0,0,0,0,0,0,0,0,0],"split_type":[0,0,0,0,0,0,0,0,0,0,0,0,0,0,0,0,0,0,0,0,0,0,0,0,0,0,0,0,0,0,0,0,0,0,0],"sum_hessian":[1.6339229E2,1.3247871E2,3.0913576E1,3.2065727E1,1.0041298E2,2.9779985E1,1.1335909E0,3.0095572E1,1.9701551E0,1.9416725E1,8.0996254E1,3.8158584E0,2.5964127E1,2.8653694E1,1.4418766E0,1.3836013E0,1.8033123E1,8.236079E0,7.276018E1,2.1457574E0,1.6701012E0,1.9832228E1,6.131901E0,1.1349614E0,2.7518734E1,1.3096013E1,4.93711E0,4.885893E0,3.3501863E0,2.5844604E1,4.6915573E1,1.0701141E0,1.8762114E1,5.056825E0,1.0750755E0],"tree_param":{"num_deleted":"0","num_feature":"8","num_nodes":"35","size_leaf_vector":"1"}},{"base_weights":[-3.4341134E-2,-9.672113E-1,2.040751E-1,-1.103438E0,-3.4828693E-1,-6.0609406E-1,3.6375245E-1,-4.233046E-1,-3.5255905E-2,2.4110682E-2,-8.8105786E-1,-1.1003543E0,-1.0416794E-1,1.8665431E-1,8.7084186E-1,-2.7924614E-2,1.4835785E-2,-4.254552E-3,-3.128158E-2,4.1547377E-4,-1.2886878E0,-8.6247325E-1,3.8271666E-1,7.199353E-2,8.3997387E-1,-9.848049E-3,9.3124586E-1,-9.39856E-3,-4.327267E-2,-3.384112E-2,3.6513613E-4,-2.7431E-2,2.3552762E-2,-9.914698E-3,9.403207E-3,3.4765344E-2,-1.4919825E-2,-2.806434E-3,2.9654277E-2],"categories":[],"categories_nodes":[],"categories_segments":[],"categories_sizes":[],"default_left":[0,0,0,0,0,0,0,0,0,0,0,0,0,0,0,0,0,0,0,0,0,0,0,0,0,0,0,0,0,0,0,0,0,0,0,0,0,0,0],"id":24,"left_children":[1,3,5,7,9,11,13,15,-1,-1,17,19,21,23,25,-1,-1,-1,-1,-1,27,29,31,33,35,-1,37,-1,-1,-1,-1,-1,-1,-1,-1,-1,-1,-1,-1],"loss_changes":[3.669771E1,2.4468937E0,1.723625E1,8.2323456E-1,5.322686E0,5.350829E0,9.761006E0,2.3913817E0,0E0,0E0,5.2353E-1,2.3251848E0,4.773567E0,6.169932E0,2.357666E0,0E0,0E0,0E0,0E0,0E0,9.601259E-1,1.1781828E0,4.9046273E0,7.085635E0,5.831579E0,0E0,1.6895943E0,0E0,0E0,0E0,0E0,0E0,0E0,0E0,0E0,0E0,0E0,0E0,0E0],"parents":[2147483647,0,0,1,1,2,2,3,3,4,4,5,5,6,6,7,7,10,10,11,11,12,12,13,13,14,14,20,20,21,21,22,22,23,23,24,24,26,26],"right_children":[2,4,6,8,10,12,14,16,-1,-1,18,20,22,24,26,-1,-1,-1,-1,-1,28,30,32,34,36,-1,38,-1,-1,-1,-1,-1,-1,-1,-1,-1,-1,-1,-1],"split_conditions":[2.79E1,4.9E1,1.07807755E2,4.9E1,5.4E1,4.71E-1,7E0,5.612995E-1,-3.5255905E-2,2.4110682E-2,2.33E-1,1E0,2.5E1,4.23E1,6.0097263E1,-2.7924614E-2,1.4835785E-2,-4.254552E-3,-3.128158E-2,4.1547377E-4,2.3711935E1,3.2067844E1,1.8178501E1,3.25E-1,8.17E-1,-9.848049E-3,2.5127167E1,-9.39856E-3,-4.327267E-2,-3.384112E-2,3.6513613E-4,-2.7431E-2,2.3552762E-2,-9.914698E-3,9.403207E-3,3.4765344E-2,-1.4919825E-2,-2.806434E-3,2.9654277E-2],"split_indices":[5,7,4,4,7,6,0,6,0,0,6,0,7,5,2,0,0,0,0,0,3,3,3,6,6,0,3,0,0,0,0,0,0,0,0,0,0,0,0],"split_type":[0,0,0,0,0,0,0,0,0,0,0,0,0,0,0,0,0,0,0,0,0,0,0,0,0,0,0,0,0,0,0,0,0,0,0,0,0,0,0],"sum_hessian":[1.6311174E2,3.25793E1,1.3053244E2,2.6060493E1,6.5188074E0,2.1030811E1,1.0950163E2,3.1455772E0,2.2914917E1,1.9006487E0,4.618159E0,9.9956045E0,1.1035207E1,8.2171715E1,2.7329922E1,2.0164342E0,1.1291429E0,1.165565E0,3.4525938E0,1.5792191E0,8.416386E0,4.0132704E0,7.0219364E0,7.084778E1,1.1323936E1,1.0980197E0,2.6231901E1,1.5595181E0,6.8568673E0,2.8563123E0,1.1569579E0,1.3612945E0,5.6606417E0,2.6426655E1,4.442112E1,9.251435E0,2.0725005E0,1.3538854E0,2.4878017E1],"tree_param":{"num_deleted":"0","num_feature":"8","num_nodes":"39","size_leaf_vector":"1"}},{"base_weights":[-1.6014224E-2,-6.8651533E-1,4.0057915E-1,-9.020718E-1,-2.7115518E-2,-6.254902E-1,5.7655233E-1,-1.1381111E0,-4.5651233E-1,-5.925814E-1,5.7521075E-1,-9.751573E-1,3.9599016E-1,3.4443715E-1,1.1060094E0,-1.2138879E0,1.12473555E-2,-3.3070777E-2,-7.6681726E-2,2.0039913E-1,-8.7269235E-1,-1.9727026E-1,9.455278E-1,-6.144597E-1,-3.4291353E-2,-3.6583722E-3,2.7766006E-2,-6.69571E-1,4.5203608E-1,1.1566879E0,4.0093586E-3,-3.843895E-2,-1.8138394E-2,6.072069E-3,-3.4731504E-2,1.8443754E-2,-9.580457E-3,-3.2900903E-2,-8.953309E-3,-2.7360104E-2,1.5282485E-2,3.8576186E-2,-2.7359992E-3,-2.6433678E-2,8.72808E-4,-3.2188024E-2,1.618514E-3,2.4001307E-3,2.1085868E-2,3.7474714E-2,1.6103774E-2],"categories":[],"categories_nodes":[],"categories_segments":[],"categories_sizes":[],"default_left":[0,0,0,0,0,0,0,0,0,0,0,0,0,0,0,0,0,0,0,0,0,0,0,0,0,0,0,0,0,0,0,0,0,0,0,0,0,0,0,0,0,0,0,0,0,0,0,0,0,0,0],"id":25,"left_children":[1,3,5,7,9,11,13,15,17,19,21,23,25,27,29,31,-1,-1,33,35,37,39,41,43,-1,-1,-1,45,47,49,-1,-1,-1,-1,-1,-1,-1,-1,-1,-1,-1,-1,-1,-1,-1,-1,-1,-1,-1,-1,-1],"loss_changes":[4.5747715E1,8.895269E0,1.860451E1,4.451046E0,5.957691E0,5.840775E0,1.0282497E1,3.9205513E0,4.340168E0,2.1736453E0,2.6159966E0,4.0836334E-3,1.3760643E0,7.0427327E0,1.1263199E0,4.1721725E-1,0E0,0E0,3.985134E0,8.773916E-1,5.5208206E-1,2.2725258E0,2.203776E0,1.0326023E0,0E0,0E0,0E0,1.90504E0,5.2110386E0,7.381439E-1,0E0,0E0,0E0,0E0,0E0,0E0,0E0,0E0,0E0,0E0,0E0,0E0,0E0,0E0,0E0,0E0,0E0,0E0,0E0,0E0,0E0],"parents":[2147483647,0,0,1,1,2,2,3,3,4,4,5,5,6,6,7,7,8,8,9,9,10,10,11,11,12,12,13,13,14,14,15,15,18,18,19,19,20,20,21,21,22,22,23,23,27,27,28,28,29,29],"right_children":[2,4,6,8,10,12,14,16,18,20,22,24,26,28,30,32,-1,-1,34,36,38,40,42,44,-1,-1,-1,46,48,50,-1,-1,-1,-1,-1,-1,-1,-1,-1,-1,-1,-1,-1,-1,-1,-1,-1,-1,-1,-1,-1],"split_conditions":[1.12100426E2,6.13E-1,2.79E1,3.1E1,2.917312E1,1.46E2,1.5804584E2,4.29E1,9.5E1,1.6E1,7.205432E1,7.205432E1,7E0,1.91E-1,1.461E0,3.6110577E1,1.12473555E-2,-3.3070777E-2,3.5E1,2.4E1,8.4738445E-1,3.54E1,4.1E1,1.3324814E2,-3.4291353E-2,-3.6583722E-3,2.7766006E-2,3.2E1,2.9E1,4.9E1,4.0093586E-3,-3.843895E-2,-1.8138394E-2,6.072069E-3,-3.4731504E-2,1.8443754E-2,-9.580457E-3,-3.2900903E-2,-8.953309E-3,-2.7360104E-2,1.5282485E-2,3.8576186E-2,-2.7359992E-3,-2.6433678E-2,8.72808E-4,-3.2188024E-2,1.618514E-3,2.4001307E-3,2.1085868E-2,3.7474714E-2,1.6103774E-2],"split_indices":[1,6,5,7,3,1,1,5,1,3,2,2,0,6,6,3,0,0,3,7,6,5,5,1,0,0,0,7,7,7,0,0,0,0,0,0,0,0,0,0,0,0,0,0,0,0,0,0,0,0,0],"split_type":[0,0,0,0,0,0,0,0,0,0,0,0,0,0,0,0,0,0,0,0,0,0,0,0,0,0,0,0,0,0,0,0,0,0,0,0,0,0,0,0,0,0,0,0,0,0,0,0,0,0,0],"sum_hessian":[1.6179422E2,6.175404E1,1.0004017E2,4.6262806E1,1.5491236E1,1.4271434E1,8.576874E1,2.9225813E1,1.7036991E1,7.9984465E0,7.4927893E0,1.0665748E1,3.6056867E0,6.077527E1,2.4993471E1,2.8020184E1,1.2056303E0,5.604726E0,1.1432265E1,2.1621308E0,5.8363156E0,2.5794184E0,4.9133706E0,4.867703E0,5.7980447E0,2.2119436E0,1.393743E0,5.3293E0,5.544597E1,2.3575195E1,1.4182744E0,2.4235737E1,3.7844458E0,9.732466E0,1.6997998E0,1.1012461E0,1.0608847E0,3.5440493E0,2.2922664E0,1.1379629E0,1.4414554E0,3.518102E0,1.3952689E0,3.1806254E0,1.6870776E0,3.1116316E0,2.2176683E0,2.2859356E1,3.2586613E1,1.9631647E1,3.9435494E0],"tree_param":{"num_deleted":"0","num_feature":"8","num_nodes":"51","size_leaf_vector":"1"}},{"base_weights":[-4.385702E-3,-3.9011073E-1,7.1078616E-1,-1.0842199E0,-1.5907948E-1,3.4062627E-1,1.0774918E0,-1.1590253E0,-4.7711435E-1,-6.1539453E-1,2.1654426E-1,-6.799877E-1,5.316835E-1,-4.2357267E-4,1.1261154E0,-5.508497E-1,-3.7888035E-2,-2.8885178E-2,9.612182E-3,-7.0777446E-1,2.3731869E-2,-3.6527592E-1,6.06783E-1,-3.7761407E-3,-3.1090664E-2,8.018001E-1,5.341225E-2,1.1745147E0,5.914927E-4,-3.073917E-2,1.7843751E-2,-2.746749E-2,-7.1721366E-3,-1.9609153E-2,1.1619304E-2,-9.71074E-3,2.0189429E-2,4.086529E-3,3.1338133E-2,1.0203945E-2,-3.0369764E-2,3.601692E-2,1.1131805E-2],"categories":[],"categories_nodes":[],"categories_segments":[],"categories_sizes":[],"default_left":[0,0,0,0,0,0,0,0,0,0,0,0,0,0,0,0,0,0,0,0,0,0,0,0,0,0,0,0,0,0,0,0,0,0,0,0,0,0,0,0,0,0,0],"id":26,"left_children":[1,3,5,7,9,11,13,15,17,19,21,23,25,-1,27,29,-1,-1,-1,31,-1,33,35,-1,-1,37,39,41,-1,-1,-1,-1,-1,-1,-1,-1,-1,-1,-1,-1,-1,-1,-1],"loss_changes":[4.4687073E1,1.6701822E1,7.337549E0,6.326046E-1,1.3866233E1,6.1546984E0,1.5047836E0,7.2888565E-1,2.0762799E0,5.29387E0,1.0367497E1,8.8125944E-1,3.262576E0,0E0,1.4155312E0,3.3576198E0,0E0,0E0,0E0,3.1626034E0,0E0,4.2817893E0,1.888443E0,0E0,0E0,2.4886122E0,3.493529E0,9.290314E-2,0E0,0E0,0E0,0E0,0E0,0E0,0E0,0E0,0E0,0E0,0E0,0E0,0E0,0E0,0E0],"parents":[2147483647,0,0,1,1,2,2,3,3,4,4,5,5,6,6,7,7,8,8,9,9,10,10,11,11,12,12,14,14,15,15,19,19,21,21,22,22,25,25,26,26,27,27],"right_children":[2,4,6,8,10,12,14,16,18,20,22,24,26,-1,28,30,-1,-1,-1,32,-1,34,36,-1,-1,38,40,42,-1,-1,-1,-1,-1,-1,-1,-1,-1,-1,-1,-1,-1,-1,-1],"split_conditions":[1.3324814E2,2.79E1,1.5804584E2,4.3E1,2.9E1,2.22E-1,1.05E2,5E1,2.7E1,4.54E1,1.0749156E2,4.4E1,6.07E-1,-4.2357267E-4,6.1E1,5.8251953E-1,-3.7888035E-2,-2.8885178E-2,9.612182E-3,5.326519E-1,2.3731869E-2,6.13E-1,1.91E-1,-3.7761407E-3,-3.1090664E-2,2.9101166E1,3.8E1,1.96E2,5.914927E-4,-3.073917E-2,1.7843751E-2,-2.746749E-2,-7.1721366E-3,-1.9609153E-2,1.1619304E-2,-9.71074E-3,2.0189429E-2,4.086529E-3,3.1338133E-2,1.0203945E-2,-3.0369764E-2,3.601692E-2,1.1131805E-2],"split_indices":[1,5,1,7,7,6,4,4,5,5,1,7,6,0,7,6,0,0,0,6,0,6,6,0,0,3,5,1,0,0,0,0,0,0,0,0,0,0,0,0,0,0,0],"split_type":[0,0,0,0,0,0,0,0,0,0,0,0,0,0,0,0,0,0,0,0,0,0,0,0,0,0,0,0,0,0,0,0,0,0,0,0,0,0,0,0,0,0,0],"sum_hessian":[1.5998688E2,1.0422699E2,5.5759884E1,2.510592E1,7.912107E1,2.8709166E1,2.7050718E1,2.1542442E1,3.563479E0,3.5435276E1,4.3685795E1,4.1233654E0,2.45858E1,1.1838025E0,2.5866915E1,4.0630245E0,1.7479418E1,2.0858274E0,1.4776516E0,3.3717392E1,1.7178824E0,1.7563597E1,2.6122196E1,2.1435559E0,1.9798095E0,1.5279716E1,9.306085E0,2.4723812E1,1.1431031E0,2.9490433E0,1.1139814E0,2.2699636E1,1.1017755E1,1.2793201E1,4.7703953E0,1.4766567E0,2.464554E1,4.5013905E0,1.0778325E1,7.8697157E0,1.4363692E0,2.3468668E1,1.2551446E0],"tree_param":{"num_deleted":"0","num_feature":"8","num_nodes":"43","size_leaf_vector":"1"}},{"base_weights":[6.5776054E-3,-2.5121808E-1,1.020569E0,-1.0402299E0,-2.4934696E-2,1.0799984E0,-9.41623E-3,-1.1520302E0,-5.9262866E-1,-9.668813E-1,1.4586642E-1,1.1273935E0,-3.478958E-3,-4.7497055E-1,-3.7818465E-2,2.2910272E-3,-8.5205585E-1,-1.0499516E0,1.4711685E-3,-1.7940865E-1,4.7028294E-1,6.338905E-3,1.1683371E0,-2.930148E-2,1.7513623E-2,-5.571981E-4,-3.518202E-2,-3.6916796E-2,-6.0234615E-3,-2.1594524E-2,1.6674084E-3,1.68052E-2,-2.5340699E-2,3.5807054E-2,7.687588E-3],"categories":[],"categories_nodes":[],"categories_segments":[],"categories_sizes":[],"default_left":[0,0,0,0,0,0,0,0,0,0,0,0,0,0,0,0,0,0,0,0,0,0,0,0,0,0,0,0,0,0,0,0,0,0,0],"id":27,"left_children":[1,3,5,7,9,11,-1,13,15,17,19,21,-1,23,-1,-1,25,27,-1,29,31,-1,33,-1,-1,-1,-1,-1,-1,-1,-1,-1,-1,-1,-1],"loss_changes":[4.243335E1,2.3085245E1,2.9484024E0,7.597542E-1,1.649018E1,1.9290504E0,0E0,1.0190334E0,1.4223397E0,1.3789196E0,9.253463E0,9.012451E-1,0E0,3.0382354E0,0E0,0E0,1.5063629E0,1.989769E0,0E0,5.6417584E0,5.6479797E0,0E0,3.6335754E-1,0E0,0E0,0E0,0E0,0E0,0E0,0E0,0E0,0E0,0E0,0E0,0E0],"parents":[2147483647,0,0,1,1,2,2,3,3,4,4,5,5,7,7,8,8,9,9,10,10,11,11,13,13,16,16,17,17,19,19,20,20,22,22],"right_children":[2,4,6,8,10,12,-1,14,16,18,20,22,-1,24,-1,-1,26,28,-1,30,32,-1,34,-1,-1,-1,-1,-1,-1,-1,-1,-1,-1,-1,-1],"split_conditions":[1.5489636E2,2.79E1,6.3E1,4E1,9.5E1,5.43E2,-9.41623E-3,5E1,5E0,4.0188927E1,3.1E1,1.37E-1,-3.478958E-3,5.8251953E-1,-3.7818465E-2,2.2910272E-3,5E1,6.6E-1,1.4711685E-3,2.9101166E1,5.9E1,6.338905E-3,4.5793953E1,-2.930148E-2,1.7513623E-2,-5.571981E-4,-3.518202E-2,-3.6916796E-2,-6.0234615E-3,-2.1594524E-2,1.6674084E-3,1.68052E-2,-2.5340699E-2,3.5807054E-2,7.687588E-3],"split_indices":[1,5,7,7,1,4,0,4,0,3,7,6,0,6,0,0,7,6,0,3,7,0,5,0,0,0,0,0,0,0,0,0,0,0,0],"split_type":[0,0,0,0,0,0,0,0,0,0,0,0,0,0,0,0,0,0,0,0,0,0,0,0,0,0,0,0,0,0,0,0,0,0,0],"sum_hessian":[1.6034868E2,1.284452E2,3.1903475E1,2.7825474E1,1.00619736E2,3.0725777E1,1.1776984E0,2.1005104E1,6.8203697E0,1.4729199E1,8.589053E1,2.9609701E1,1.1160743E0,3.6459253E0,1.7359179E1,2.1029725E0,4.717397E0,1.3584886E1,1.1443133E0,4.3111713E1,4.2778824E1,1.530309E0,2.8079393E1,2.5262325E0,1.1196927E0,1.6046448E0,3.1127527E0,1.0831928E1,2.7529573E0,1.2439998E1,3.0671715E1,4.0578888E1,2.1999338E0,2.702322E1,1.0561734E0],"tree_param":{"num_deleted":"0","num_feature":"8","num_nodes":"35","size_leaf_vector":"1"}},{"base_weights":[2.926038E-2,-3.3995453E-1,7.089966E-1,-1.1441928E0,-1.4536342E-1,3.5720456E-1,1.0649668E0,-3.7722714E-2,-5.744146E-1,-5.461301E-1,2.294457E-1,-2.2867642E-1,5.9604E-1,1.1502281E0,5.745284E-1,1.2820687E-2,-3.0836495E-2,-9.1203946E-1,-8.559055E-2,-4.6958667E-1,4.5821488E-1,-2.6668034E-2,1.0976481E-1,-8.989245E-3,6.8986326E-1,1.218749E0,3.662288E-1,-1.7763558E-1,3.1494968E-2,-3.2975696E-2,-2.980699E-3,1.6822992E-2,-1.423514E-2,7.5633554E-3,-2.3797482E-2,-1.0528747E-2,2.0068346E-2,1.4721847E-2,-2.3460308E-2,2.800541E-2,4.4401926E-3,3.7815847E-2,1.1491291E-2,2.1407178E-2,-5.051214E-3,1.1911128E-2,-2.0339873E-2],"categories":[],"categories_nodes":[],"categories_segments":[],"categories_sizes":[],"default_left":[0,0,0,0,0,0,0,0,0,0,0,0,0,0,0,0,0,0,0,0,0,0,0,0,0,0,0,0,0,0,0,0,0,0,0,0,0,0,0,0,0,0,0,0,0,0,0],"id":28,"left_children":[1,3,5,7,9,11,13,-1,15,17,19,21,23,25,27,-1,-1,29,31,33,35,-1,37,-1,39,41,43,45,-1,-1,-1,-1,-1,-1,-1,-1,-1,-1,-1,-1,-1,-1,-1,-1,-1,-1,-1],"loss_changes":[3.970684E1,1.5887014E1,6.5916386E0,5.576477E-1,1.2703982E1,4.265129E0,4.7522545E-1,0E0,2.7696543E0,6.791401E0,7.247607E0,2.1685286E0,1.9915328E0,7.4339485E-1,2.3392594E0,0E0,0E0,3.3300152E0,5.080467E0,2.8481555E0,5.970718E0,0E0,2.76772E0,0E0,2.4399672E0,2.1327591E-1,7.1614546E-1,1.1855904E0,0E0,0E0,0E0,0E0,0E0,0E0,0E0,0E0,0E0,0E0,0E0,0E0,0E0,0E0,0E0,0E0,0E0,0E0,0E0],"parents":[2147483647,0,0,1,1,2,2,3,3,4,4,5,5,6,6,8,8,9,9,10,10,11,11,12,12,13,13,14,14,17,17,18,18,19,19,20,20,22,22,24,24,25,25,26,26,27,27],"right_children":[2,4,6,8,10,12,14,-1,16,18,20,22,24,26,28,-1,-1,30,32,34,36,-1,38,-1,40,42,44,46,-1,-1,-1,-1,-1,-1,-1,-1,-1,-1,-1,-1,-1,-1,-1,-1,-1,-1,-1],"split_conditions":[1.3324814E2,2.7E1,1.5804584E2,6.5344775E-1,3E1,3.021416E1,4.9E1,-3.7722714E-2,2.4E1,2.917312E1,1.00446915E2,2.808264E1,2.5127167E1,1.89E2,1.74E2,1.2820687E-2,-3.0836495E-2,7.838809E1,3.3982582E1,2.7880014E1,2.5283954E-1,-2.6668034E-2,2.97E1,-8.989245E-3,8.021565E1,1E1,5.86E-1,3.26847E1,3.1494968E-2,-3.2975696E-2,-2.980699E-3,1.6822992E-2,-1.423514E-2,7.5633554E-3,-2.3797482E-2,-1.0528747E-2,2.0068346E-2,1.4721847E-2,-2.3460308E-2,2.800541E-2,4.4401926E-3,3.7815847E-2,1.1491291E-2,2.1407178E-2,-5.051214E-3,1.1911128E-2,-2.0339873E-2],"split_indices":[1,5,1,6,7,5,7,0,7,3,1,3,3,1,1,0,0,2,5,3,6,0,5,0,2,0,6,5,0,0,0,0,0,0,0,0,0,0,0,0,0,0,0,0,0,0,0],"split_type":[0,0,0,0,0,0,0,0,0,0,0,0,0,0,0,0,0,0,0,0,0,0,0,0,0,0,0,0,0,0,0,0,0,0,0,0,0,0,0,0,0,0,0,0,0,0,0],"sum_hessian":[1.5625389E2,1.0157882E2,5.4675076E1,1.8838785E1,8.274003E1,2.8506567E1,2.6168509E1,1.4708854E1,4.1299314E0,3.9764515E1,4.2975517E1,8.2677355E0,2.023883E1,2.1146877E1,5.0216317E0,1.3048756E0,2.825056E0,2.1612509E1,1.8152006E1,1.0336969E1,3.2638546E1,2.2505767E0,6.0171585E0,1.7110125E0,1.8527819E1,1.893725E1,2.2096272E0,2.1869974E0,2.8346343E0,1.7280489E1,4.3320203E0,6.653059E0,1.1498948E1,3.268959E0,7.0680103E0,6.6062083E0,2.603234E1,4.5311737E0,1.4859852E0,1.2282214E1,6.2456045E0,1.7551466E1,1.3857846E0,1.1364663E0,1.0731609E0,1.1140203E0,1.0729771E0],"tree_param":{"num_deleted":"0","num_feature":"8","num_nodes":"47","size_leaf_vector":"1"}},{"base_weights":[-6.524193E-3,-2.439846E-1,9.722134E-1,-9.7799194E-1,-3.98107E-2,-2.4893186E-3,1.0129602E0,-3.8031206E-1,-1.0620682E0,-8.9308614E-1,9.968117E-2,1.073015E0,2.0619692E-1,-2.9745836E-2,2.6353069E-2,-1.2005289E0,-4.8834354E-1,-1.0724672E0,5.7233637E-3,-1.6685785E-1,4.6955732E-1,2.5679744E-4,1.1204743E0,-1.3783319E-2,2.269616E-2,-3.829485E-2,-1.2707135E-2,-2.3717694E-2,-3.8969782E-3,-3.5131596E-2,-1.1119578E-2,-3.344178E-2,8.441363E-5,8.809964E-3,3.476956E-2,1.1846526E-2,3.5139073E-2],"categories":[],"categories_nodes":[],"categories_segments":[],"categories_sizes":[],"default_left":[0,0,0,0,0,0,0,0,0,0,0,0,0,0,0,0,0,0,0,0,0,0,0,0,0,0,0,0,0,0,0,0,0,0,0,0,0],"id":29,"left_children":[1,3,5,7,9,-1,11,13,15,17,19,21,23,-1,-1,25,27,29,-1,31,33,-1,35,-1,-1,-1,-1,-1,-1,-1,-1,-1,-1,-1,-1,-1,-1],"loss_changes":[3.703056E1,1.9173882E1,1.4216728E0,9.95945E-1,1.2151391E1,0E0,1.2336826E0,4.712688E0,1.3094616E0,2.9926453E0,8.7542715E0,1.3903313E0,1.5632116E0,0E0,0E0,5.5352974E-1,5.8257604E-1,4.276762E-1,0E0,8.347471E0,4.160884E0,0E0,5.155716E-1,0E0,0E0,0E0,0E0,0E0,0E0,0E0,0E0,0E0,0E0,0E0,0E0,0E0,0E0],"parents":[2147483647,0,0,1,1,2,2,3,3,4,4,6,6,7,7,8,8,9,9,10,10,11,11,12,12,15,15,16,16,17,17,19,19,20,20,22,22],"right_children":[2,4,6,8,10,-1,12,14,16,18,20,22,24,-1,-1,26,28,30,-1,32,34,-1,36,-1,-1,-1,-1,-1,-1,-1,-1,-1,-1,-1,-1,-1,-1],"split_conditions":[1.5489636E2,2.79E1,1.4E-1,5E1,9.4E1,-2.4893186E-3,5.8E1,5.86E-1,2.7E1,7.820817E-1,5.0128466E-1,1E2,1.74E2,-2.9745836E-2,2.6353069E-2,5.8E1,2.4710834E-1,3.77E1,5.7233637E-3,1.07807755E2,8E0,2.5679744E-4,2.5E1,-1.3783319E-2,2.269616E-2,-3.829485E-2,-1.2707135E-2,-2.3717694E-2,-3.8969782E-3,-3.5131596E-2,-1.1119578E-2,-3.344178E-2,8.441363E-5,8.809964E-3,3.476956E-2,1.1846526E-2,3.5139073E-2],"split_indices":[1,5,6,4,1,0,7,6,5,6,6,4,1,0,0,7,6,5,0,4,0,0,7,0,0,0,0,0,0,0,0,0,0,0,0,0,0],"split_type":[0,0,0,0,0,0,0,0,0,0,0,0,0,0,0,0,0,0,0,0,0,0,0,0,0,0,0,0,0,0,0,0,0,0,0,0,0],"sum_hessian":[1.573113E2,1.272007E2,3.01106E1,2.6857544E1,1.00343155E2,1.0809726E0,2.9029627E1,3.993322E0,2.2864222E1,1.3339943E1,8.700321E1,2.6711239E1,2.3183863E0,2.8309667E0,1.1623551E0,1.7538925E1,5.325298E0,1.1454692E1,1.8852506E0,5.0884125E1,3.6119083E1,1.1904855E0,2.5520754E1,1.1240314E0,1.194355E0,1.5391133E1,2.1477916E0,2.2350504E0,3.0902472E0,9.457553E0,1.997139E0,6.87988E0,4.4004246E1,2.9913334E1,6.205749E0,2.2447777E0,2.3275976E1],"tree_param":{"num_deleted":"0","num_feature":"8","num_nodes":"37","size_leaf_vector":"1"}},{"base_weights":[-1.3266871E-2,-5.9371954E-1,3.439478E-1,-8.799401E-1,-1.713694E-1,-4.7062272E-1,5.976453E-1,-1.1633244E0,-3.280981E-1,-8.3755755E-1,1.3915224E-1,-7.357217E-1,1.7890193E-1,4.0398055E-1,9.869967E-1,-3.7588738E-2,-3.68955E-1,-7.1363246E-1,4.7373766E-1,-3.21107E-2,5.616063E-3,-2.3289362E-2,2.8406736E-1,-1.0311363E0,-1.05807774E-1,-2.876722E-1,7.021763E-1,-5.2756345E-1,4.8955902E-1,1.039449E0,1.7947704E-3,9.560882E-3,-2.646184E-2,1.2330586E-2,-2.8264018E-2,2.4780214E-2,-1.2499857E-4,-1.4715783E-2,1.7265026E-2,-7.3835105E-3,-3.2503385E-2,-2.7979387E-2,1.868606E-2,1.3587512E-2,-1.9222025E-2,5.76037E-3,2.7271852E-2,9.0974E-3,-2.6715567E-2,1.0849426E-2,3.2911174E-2,9.509061E-3,3.382984E-2],"categories":[],"categories_nodes":[],"categories_segments":[],"categories_sizes":[],"default_left":[0,0,0,0,0,0,0,0,0,0,0,0,0,0,0,0,0,0,0,0,0,0,0,0,0,0,0,0,0,0,0,0,0,0,0,0,0,0,0,0,0,0,0,0,0,0,0,0,0,0,0,0,0],"id":30,"left_children":[1,3,5,7,9,11,13,15,17,19,21,23,25,27,29,-1,31,33,35,-1,-1,-1,37,39,41,43,45,47,49,51,-1,-1,-1,-1,-1,-1,-1,-1,-1,-1,-1,-1,-1,-1,-1,-1,-1,-1,-1,-1,-1,-1,-1],"loss_changes":[3.3034702E1,7.185356E0,2.0667671E1,5.237341E0,5.444534E0,4.2619495E0,5.3064976E0,1.2000923E0,4.53734E0,2.1878185E0,2.6648514E0,3.097207E0,2.0958354E0,4.421419E0,1.1264057E0,0E0,1.616483E0,2.847157E0,8.4716046E-1,0E0,0E0,0E0,4.038418E0,2.1031094E-1,4.5665455E0,1.5478985E0,2.4203146E-1,1.7401386E0,3.3599892E0,1.1129074E0,0E0,0E0,0E0,0E0,0E0,0E0,0E0,0E0,0E0,0E0,0E0,0E0,0E0,0E0,0E0,0E0,0E0,0E0,0E0,0E0,0E0,0E0,0E0],"parents":[2147483647,0,0,1,1,2,2,3,3,4,4,5,5,6,6,7,7,8,8,9,9,10,10,11,11,12,12,13,13,14,14,16,16,17,17,18,18,22,22,23,23,24,24,25,25,26,26,27,27,28,28,29,29],"right_children":[2,4,6,8,10,12,14,16,18,20,22,24,26,28,30,-1,32,34,36,-1,-1,-1,38,40,42,44,46,48,50,52,-1,-1,-1,-1,-1,-1,-1,-1,-1,-1,-1,-1,-1,-1,-1,-1,-1,-1,-1,-1,-1,-1,-1],"split_conditions":[1.12100426E2,3.1E1,3E1,4.96E-1,9.5E1,1.4483594E2,1.574449E2,8.2322845E1,3.006804E1,7.4571306E-1,6.5384766E1,2.83E1,6E0,1.91E-1,1.461E0,-3.7588738E-2,8.635377E1,2.42E1,5.57E-1,-3.21107E-2,5.616063E-3,-2.3289362E-2,2.5283954E-1,5.408953E1,6.818715E1,2.126516E1,7E0,3.2457462E1,4.5E1,2.6344297E1,1.7947704E-3,9.560882E-3,-2.646184E-2,1.2330586E-2,-2.8264018E-2,2.4780214E-2,-1.2499857E-4,-1.4715783E-2,1.7265026E-2,-7.3835105E-3,-3.2503385E-2,-2.7979387E-2,1.868606E-2,1.3587512E-2,-1.9222025E-2,5.76037E-3,2.7271852E-2,9.0974E-3,-2.6715567E-2,1.0849426E-2,3.2911174E-2,9.509061E-3,3.382984E-2],"split_indices":[1,7,5,6,1,1,1,2,3,6,2,5,0,6,6,0,2,5,6,0,0,0,6,2,2,3,0,5,7,3,0,0,0,0,0,0,0,0,0,0,0,0,0,0,0,0,0,0,0,0,0,0,0],"split_type":[0,0,0,0,0,0,0,0,0,0,0,0,0,0,0,0,0,0,0,0,0,0,0,0,0,0,0,0,0,0,0,0,0,0,0,0,0,0,0,0,0,0,0,0,0,0,0,0,0,0,0,0,0],"sum_hessian":[1.5733661E2,5.9686882E1,9.764972E1,3.4931126E1,2.4755754E1,2.2987267E1,7.466245E1,2.2347216E1,1.2583912E1,7.3308997E0,1.7424854E1,1.6230282E1,6.7569857E0,5.1222023E1,2.3440434E1,1.9562551E1,2.7846637E0,8.57225E0,4.0116615E0,5.9375463E0,1.3933535E0,1.7858968E0,1.5638958E1,1.0615104E1,5.615178E0,3.8100371E0,2.9469485E0,3.8751655E0,4.7346855E1,2.2070744E1,1.3696913E0,1.3518459E0,1.4328178E0,1.3126775E0,7.2595725E0,1.8900709E0,2.1215906E0,4.088661E0,1.1550297E1,1.0195527E0,9.595551E0,2.499287E0,3.1158912E0,1.138685E0,2.6713521E0,1.4065679E0,1.5403807E0,1.228232E0,2.6469333E0,4.0429344E1,6.917512E0,2.901342E0,1.9169401E1],"tree_param":{"num_deleted":"0","num_feature":"8","num_nodes":"53","size_leaf_vector":"1"}},{"base_weights":[-3.4295388E-2,-3.5350105E-1,5.8349276E-1,-9.164156E-1,-1.2609087E-1,2.684293E-1,9.441324E-1,-9.977009E-1,8.567386E-3,-3.8750654E-1,3.182275E-1,-4.7944152E-1,4.018977E-1,1.0222632E0,1.2049879E-1,-1.060048E0,3.6759148E-3,-1.1052195E0,-2.1230309E-1,-1.1183063E-1,7.649073E-1,2.3455992E-3,-2.7407289E-2,-3.4655306E-1,5.5128723E-1,1.0752916E0,-1.0020583E-4,2.3845717E-2,-2.010658E-2,3.6135172E-3,-3.3405498E-2,-3.71849E-2,-7.7310875E-3,-1.581049E-2,4.604234E-3,1.1958028E-2,-1.5691703E-2,-2.8908357E-3,3.371378E-2,8.304983E-3,-3.4088477E-2,-6.9409814E-3,2.395546E-2,2.1374035E-3,3.4180164E-2],"categories":[],"categories_nodes":[],"categories_segments":[],"categories_sizes":[],"default_left":[0,0,0,0,0,0,0,0,0,0,0,0,0,0,0,0,0,0,0,0,0,0,0,0,0,0,0,0,0,0,0,0,0,0,0,0,0,0,0,0,0,0,0,0,0],"id":31,"left_children":[1,3,5,7,9,11,13,15,-1,17,19,21,23,25,27,29,-1,31,33,35,37,-1,-1,39,41,43,-1,-1,-1,-1,-1,-1,-1,-1,-1,-1,-1,-1,-1,-1,-1,-1,-1,-1,-1],"loss_changes":[3.171264E1,1.3448934E1,5.9737797E0,3.248333E0,9.024246E0,3.2519004E0,1.4957047E0,2.129612E0,0E0,5.88881E0,5.6438675E0,1.3054168E0,3.1597228E0,1.2459774E0,2.299465E0,1.8526058E0,0E0,7.4091053E-1,4.729201E0,3.4859421E0,4.5347643E0,0E0,0E0,2.791723E0,4.542061E0,1.3158016E0,0E0,0E0,0E0,0E0,0E0,0E0,0E0,0E0,0E0,0E0,0E0,0E0,0E0,0E0,0E0,0E0,0E0,0E0,0E0],"parents":[2147483647,0,0,1,1,2,2,3,3,4,4,5,5,6,6,7,7,9,9,10,10,11,11,12,12,13,13,14,14,15,15,17,17,18,18,19,19,20,20,23,23,24,24,25,25],"right_children":[2,4,6,8,10,12,14,16,-1,18,20,22,24,26,28,30,-1,32,34,36,38,-1,-1,40,42,44,-1,-1,-1,-1,-1,-1,-1,-1,-1,-1,-1,-1,-1,-1,-1,-1,-1,-1,-1],"split_conditions":[1.3324814E2,1E2,1.5804584E2,1.5559213E2,5.210856E-1,2.22E-1,1.136E0,5.1E1,8.567386E-3,1.14E2,2.917312E1,1.4371327E2,6.618401E1,6.1E1,2.6E1,5E1,3.6759148E-3,4.71E-1,3.1E1,6.92E-1,2.9E1,2.3455992E-3,-2.7407289E-2,5.45E-1,2E0,1.05E2,-1.0020583E-4,2.3845717E-2,-2.010658E-2,3.6135172E-3,-3.3405498E-2,-3.71849E-2,-7.7310875E-3,-1.581049E-2,4.604234E-3,1.1958028E-2,-1.5691703E-2,-2.8908357E-3,3.371378E-2,8.304983E-3,-3.4088477E-2,-6.9409814E-3,2.395546E-2,2.1374035E-3,3.4180164E-2],"split_indices":[1,1,1,4,6,6,6,7,0,4,3,1,2,7,7,2,0,6,7,6,7,0,0,6,0,4,0,0,0,0,0,0,0,0,0,0,0,0,0,0,0,0,0,0,0],"split_type":[0,0,0,0,0,0,0,0,0,0,0,0,0,0,0,0,0,0,0,0,0,0,0,0,0,0,0,0,0,0,0,0,0,0,0,0,0,0,0,0,0,0,0,0,0],"sum_hessian":[1.5876744E2,1.049622E2,5.3805244E1,2.9330309E1,7.563189E1,2.9648186E1,2.4157057E1,2.763167E1,1.6986382E0,4.7697075E1,2.7934814E1,4.0973134E0,2.5550873E1,2.184377E1,2.3132882E0,2.6225784E1,1.4058857E0,8.317325E0,3.937975E1,1.4614135E1,1.3320679E1,2.1524644E0,1.944849E0,4.031752E0,2.151912E1,2.0723804E1,1.1199639E0,1.2456821E0,1.0676061E0,1.0820981E0,2.5143686E1,6.780538E0,1.5367863E0,2.0930466E1,1.8449286E1,6.534248E0,8.079886E0,4.1331844E0,9.187494E0,2.6161277E0,1.4156244E0,5.1811724E0,1.6337948E1,1.3693545E0,1.935445E1],"tree_param":{"num_deleted":"0","num_feature":"8","num_nodes":"45","size_leaf_vector":"1"}},{"base_weights":[-3.1173704E-3,-2.2307368E-1,9.200492E-1,-9.6972847E-1,-1.5523239E-2,-1.7982263E-4,9.5889974E-1,-1.0098028E0,-8.4124925E-4,-5.115445E-1,2.3074102E-1,1.0044948E0,2.2782655E-3,-1.0812647E0,-6.172444E-1,-6.370816E-1,6.1803335E-1,-6.5321666E-1,3.43224E-1,2.705621E-1,1.0726275E0,-3.32111E-2,-9.9873245E-3,1.207277E-2,-2.780823E-2,-2.5364315E-2,-5.839668E-3,-9.955687E-3,3.3849526E-2,-3.461822E-2,3.7720858E-4,1.1838082E-2,-2.361593E-2,-1.3911467E-2,2.3813019E-2,3.302785E-2,6.4177266E-3],"categories":[],"categories_nodes":[],"categories_segments":[],"categories_sizes":[],"default_left":[0,0,0,0,0,0,0,0,0,0,0,0,0,0,0,0,0,0,0,0,0,0,0,0,0,0,0,0,0,0,0,0,0,0,0,0,0],"id":32,"left_children":[1,3,5,7,9,-1,11,13,-1,15,17,19,-1,21,23,25,27,29,31,33,35,-1,-1,-1,-1,-1,-1,-1,-1,-1,-1,-1,-1,-1,-1,-1,-1],"loss_changes":[3.120458E1,1.9215536E1,1.0696049E0,9.896698E-1,1.2103381E1,0E0,1.0664883E0,5.7649612E-2,0E0,5.053837E0,6.8119526E0,1.0554295E0,0E0,2.7507782E-2,2.3658452E0,2.6077185E0,2.213712E0,2.622731E0,3.7623892E0,1.7600603E0,3.5470772E-1,0E0,0E0,0E0,0E0,0E0,0E0,0E0,0E0,0E0,0E0,0E0,0E0,0E0,0E0,0E0,0E0],"parents":[2147483647,0,0,1,1,2,2,3,3,4,4,6,6,7,7,9,9,10,10,11,11,13,13,14,14,15,15,16,16,17,17,18,18,19,19,20,20],"right_children":[2,4,6,8,10,-1,12,14,-1,16,18,20,-1,22,24,26,28,30,32,34,36,-1,-1,-1,-1,-1,-1,-1,-1,-1,-1,-1,-1,-1,-1,-1,-1],"split_conditions":[1.5489636E2,2.79E1,1E2,1.4127405E2,1.0749156E2,-1.7982263E-4,9.4E1,4E1,-8.4124925E-4,1.5559213E2,1.07807755E2,2.5E1,2.2782655E-3,1.3324814E2,7.0908295E1,1.00446915E2,2.6E1,2.9E1,5.9E1,3.3323273E1,4.5793953E1,-3.32111E-2,-9.9873245E-3,1.207277E-2,-2.780823E-2,-2.5364315E-2,-5.839668E-3,-9.955687E-3,3.3849526E-2,-3.461822E-2,3.7720858E-4,1.1838082E-2,-2.361593E-2,-1.3911467E-2,2.3813019E-2,3.302785E-2,6.4177266E-3],"split_indices":[1,5,4,1,1,0,2,7,0,4,4,7,0,1,2,1,7,7,7,5,5,0,0,0,0,0,0,0,0,0,0,0,0,0,0,0,0],"split_type":[0,0,0,0,0,0,0,0,0,0,0,0,0,0,0,0,0,0,0,0,0,0,0,0,0,0,0,0,0,0,0,0,0,0,0,0,0],"sum_hessian":[1.5166377E2,1.2309352E2,2.8570253E1,2.5975475E1,9.711804E1,1.1844076E0,2.7385845E1,2.4845806E1,1.1296699E0,3.186297E1,6.525507E1,2.5910221E1,1.4756242E0,1.9535187E1,5.3106184E0,2.9068415E1,2.7945557E0,6.823637E0,5.8431435E1,2.6232643E0,2.3286957E1,1.8421488E1,1.1137003E0,1.1674367E0,4.1431813E0,1.9141304E1,9.927112E0,1.0988045E0,1.6957511E0,3.4761348E0,3.3475022E0,5.6513752E1,1.9176815E0,1.138779E0,1.4844853E0,2.227088E1,1.0160778E0],"tree_param":{"num_deleted":"0","num_feature":"8","num_nodes":"37","size_leaf_vector":"1"}},{"base_weights":[6.6973516E-3,-3.4533185E-1,5.542329E-1,-7.042714E-1,9.310931E-4,2.1937685E-1,8.7199795E-1,-1.0997053E0,-4.5450568E-1,-3.3375564E-1,5.0006014E-1,-5.841609E-1,4.3872324E-1,9.3051934E-1,-9.938326E-3,-3.663139E-2,-4.6163207E-1,-8.209947E-1,-1.6612098E-1,6.588804E-1,-5.4486924E-1,-1.21890634E-1,9.586925E-1,-1.2047555E-2,-8.892724E-1,8.062899E-1,1.1884368E-1,9.787962E-1,-5.553377E-3,-2.7522467E-2,8.853557E-3,-3.742799E-2,3.2567682E-3,9.652716E-3,-1.5361347E-2,-8.236646E-3,3.0469451E-2,-9.016274E-3,-4.11176E-2,-1.3914561E-2,1.946151E-2,-1.1274965E-2,3.3927545E-2,-1.4113659E-2,1.4577997E-2,-3.9574E-2,5.415763E-3,-7.6918313E-3,3.6757052E-2,-1.8235736E-2,1.1641469E-2,-1.7689435E-4,3.0652706E-2],"categories":[],"categories_nodes":[],"categories_segments":[],"categories_sizes":[],"default_left":[0,0,0,0,0,0,0,0,0,0,0,0,0,0,0,0,0,0,0,0,0,0,0,0,0,0,0,0,0,0,0,0,0,0,0,0,0,0,0,0,0,0,0,0,0,0,0,0,0,0,0,0,0],"id":33,"left_children":[1,3,5,7,9,11,13,15,17,19,21,23,25,27,-1,-1,29,31,33,35,37,39,41,43,45,47,49,51,-1,-1,-1,-1,-1,-1,-1,-1,-1,-1,-1,-1,-1,-1,-1,-1,-1,-1,-1,-1,-1,-1,-1,-1,-1],"loss_changes":[2.9792936E1,1.1695206E1,6.2444534E0,4.06336E0,8.334192E0,5.682375E0,2.4698925E0,7.665558E-1,3.0365314E0,6.617723E0,5.828814E0,1.2165332E0,2.8148203E0,1.771986E0,0E0,0E0,1.7721927E0,5.2773705E0,3.211777E0,2.173923E0,4.667125E0,2.774095E0,3.099989E0,1.0182408E0,2.3404129E0,5.365504E0,3.0547569E0,1.2104015E0,0E0,0E0,0E0,0E0,0E0,0E0,0E0,0E0,0E0,0E0,0E0,0E0,0E0,0E0,0E0,0E0,0E0,0E0,0E0,0E0,0E0,0E0,0E0,0E0,0E0],"parents":[2147483647,0,0,1,1,2,2,3,3,4,4,5,5,6,6,7,7,8,8,9,9,10,10,11,11,12,12,13,13,16,16,17,17,18,18,19,19,20,20,21,21,22,22,23,23,24,24,25,25,26,26,27,27],"right_children":[2,4,6,8,10,12,14,16,18,20,22,24,26,28,-1,-1,30,32,34,36,38,40,42,44,46,48,50,52,-1,-1,-1,-1,-1,-1,-1,-1,-1,-1,-1,-1,-1,-1,-1,-1,-1,-1,-1,-1,-1,-1,-1,-1,-1],"split_conditions":[1.2971773E2,2.9E1,1.5489636E2,1E2,5.2E-1,2.703303E1,6.3E1,3.006804E1,2.9101166E1,2E0,2.917312E1,1.4588753E2,7.2519615E1,5.43E2,-9.938326E-3,-3.663139E-2,4.52E-1,6.27E-1,3.0672852E1,6.618401E1,1.22E2,8.6960787E-1,9.7E1,1.14E2,4.1E1,6.434544E1,3E0,1E2,-5.553377E-3,-2.7522467E-2,8.853557E-3,-3.742799E-2,3.2567682E-3,9.652716E-3,-1.5361347E-2,-8.236646E-3,3.0469451E-2,-9.016274E-3,-4.11176E-2,-1.3914561E-2,1.946151E-2,-1.1274965E-2,3.3927545E-2,-1.4113659E-2,1.4577997E-2,-3.9574E-2,